{"uchars": ["a", "b", "c", "d", "e", "f", "g", "h", "i", "j", "k", "l", "m", "n", "o", "p", "q", "r", "s", "t", "u", "v", "w", "x", "y", "z", "\u00e0", "\u00e1", "\u00e2", "\u00e3", "\u00e7", "\u00e9", "\u00ea", "\u00ed", "\u00f3", "\u00f4", "\u00f5", "\u00fa", "\u00fc"], "vocab_size": 40, "n_layer": 1, "n_embd": 16, "block_size": 16, "n_head": 4, "weights": {"wte": [[-0.7138974555435602, 0.48146491635354954, -0.05707156744302758, 0.2711250923923048, 0.33641963377381445, -0.10464514198614822, 0.46300807949675615, 0.10296396308064237, 0.2159509709618341, 0.05838423233101178, 0.11311547636764345, 0.3106435173554454, -0.1933922583928303, -0.11128455585618054, -0.3102855064933151, -0.3018219555996608], [0.4720372486525786, -0.14016683661764195, 0.34591717871892347, -0.018215420495226915, -0.03907300186147248, 0.07247928381721792, 0.10584698535591656, 0.2766532145826506, 0.14645960200821057, -0.426127719691562, 0.014374698957370691, 0.5179506541519961, 0.0317828489574555, 0.2956883990471962, 0.345454413436896, 0.01945429623940593], [0.29374314054770095, 0.008796723198283746, 0.5366170859950483, 0.030198163529834936, -0.1784786212953501, 0.22455432324438404, -0.04799117853509566, -0.5710899207673121, -0.3257673302320634, -0.7976682869436785, -0.07076903087942991, -0.13506292570921732, 0.40844492788636855, 0.40955159200102736, -0.044684142137066334, -0.09572584964101954], [0.7490871289187678, -0.5909812939609838, 0.28093675759716824, -0.1206938147682422, -0.0862703354000943, -0.11347963603008182, -0.08212859714162579, -0.11880524349730949, -0.0620866654816836, -0.25038038012138264, -0.21341372711208312, 0.016112409544190943, -0.08710517624488012, 0.5195336817840212, 0.045524532124182636, 0.13309607517157054], [-0.45361824553202723, 0.2763165698577726, -0.3396531622382268, -0.03017982442425375, 0.046719526203986034, -0.3856923620262146, 0.2987448659333355, 0.32969072054824683, -0.3211884053125676, -0.19094113832382723, 0.3635787087291891, 0.4702864235453158, -0.3156092667561284, -0.11415781249542285, -0.01506138197104329, -0.41996429106349165], [0.4190828320437523, -0.20178915538821607, 0.36236264358139186, -0.1832073941307451, 0.0982397867124897, 0.07076212976111834, 0.004846255322073717, 0.1717704797979718, -0.11574017073028124, -0.16250755722614815, -0.17664071579345988, 0.6040187244279787, 0.5111745412928175, 0.5316045264728223, 0.19741779246420685, -0.010925730674590071], [0.35667670984377997, -0.007873403383237, 0.6107482878022455, -0.12249477502135113, -0.01016072831017767, 0.17541794875176753, -0.08348022122608638, -0.09156550195767565, 0.10901934260629939, -0.6129928072461717, -0.23190344754061973, 0.3826966110094204, 0.008639824418156717, 0.36725803327300716, 0.4518531356740559, 0.08519595532244227], [0.4422576290305773, -0.4318605977283366, 0.22383652037432777, -0.528363720169639, -0.08420446795503539, 0.2498240484353504, -0.3187071683545882, -0.3040308361651123, 0.20076761277482705, -0.26295993421801556, -0.01681636301944604, 0.059734365542359405, -0.15613081193930395, 0.5804358061435059, 0.1941400128209736, 0.08548516364557902], [-0.4602543499938982, 0.30847724579306884, -0.2321101170661286, -0.2160260009657665, 0.03872343143808862, -0.1875338992475895, 0.6141717081728676, -0.24672556208758548, 0.12247504821098072, -0.5896708349262972, 0.2337614355067713, -0.6306964515226359, -0.6138041223640054, 0.17553084321096565, 0.24032532377380167, 0.10675914624335522], [0.414558367056217, -0.07507730460218669, 0.3495160554498353, 0.02873176134520993, -0.11676809298814729, 0.03396156608624503, -0.14914042278863546, -0.14087270843936725, -0.1554224807338942, 0.2216071567403558, -0.2896131960057338, 0.07823402904601572, 0.17928121552340662, 0.039019461582959415, 0.6364802468642904, 0.3853308063936312], [-0.021400841832552833, -0.030124202381214847, -0.11706605305796207, -0.3609951759955516, 0.013081018256371188, 0.05041666381380207, -0.19304041684731676, 0.22658083113522445, -0.22920497196652626, 0.13386649301275988, -0.2294395748276134, 0.04250498214212364, 0.06514170670741573, 0.24579385707146478, -0.21628909404197455, 0.22684162573155825], [-0.07933953042523594, -0.3827091477840116, 0.49518042479417695, -0.15350623122432394, -0.09791460975651901, 0.031986962582845085, -0.15254987986938112, -0.38937054449539543, -0.2823889633409132, 0.31346782263196876, -0.015908185634905713, -0.04916567072176332, 0.2237291917339313, 0.35725444562360087, -0.23151770970807203, 0.0551560250395194], [0.32551109606768147, -0.7154716230180369, 0.09316986837350895, -0.15858121922864715, 0.07304053608807205, -0.3151028863090455, -0.02477540439114197, 0.2900062955259725, 0.3286186395994772, 0.040304582965569345, -0.5161077285730998, -0.09756670528688957, -0.0003273203174044083, 0.020283308078061692, -0.32719547883168204, 0.07396429391800019], [-0.10196189975684061, -0.0744725325027203, 0.23830430712388684, -0.6661835428932922, 0.30394653581149667, 0.4123101328631417, 0.41011675433622935, -0.6627416378846892, -0.22737941011968735, 0.010988595326589072, 0.35846872584954526, -0.42780635562632163, 0.2111078805980967, -0.14304794407362437, 0.003756443393327787, -0.013572645372120632], [-0.3010692495771307, 0.3528592828817305, -0.2334825218159891, 0.19894535545847924, 0.3507983877001888, -0.34855063844981593, 0.06893325455158253, 0.13366523371664293, -0.15986062217919644, -0.16460519872991541, -0.1820405800243112, 0.3914512476479154, -0.37528038443013295, -0.15534677479101214, -0.0569100425884918, -0.28462396039182125], [0.3573303921339954, -0.22089827763228584, 0.5089844414491524, 0.2027445984814562, 0.16397612742870585, 0.07717542359222652, 0.10879472922980234, -0.08119299618659669, 0.22838604332937198, -0.5353598656806432, 0.2665677064266633, 0.36488606260716355, 0.15391463158362953, 0.48895904746442076, 0.15272431061652963, 0.26248199341355155], [0.1029758231858814, 0.7542043738607322, 0.3215383142722358, 0.36266520671882185, 0.1003944343940911, 0.44632673833097836, -0.30130856394511646, -0.11003137395510826, -0.16409712138486068, 0.40716566988718206, -0.7057484147747557, -0.1149621922491617, 0.47890027658291573, -0.7593448266695411, 0.19294476940657462, 0.1869652726930416], [-0.050083159188397626, -0.4192040954845044, 0.30639383323417696, -0.2876047180731882, -0.12304938886379455, 0.17286247456964426, 0.22867195733653853, 0.08402499917486254, 0.2241214558310916, 0.1271212085575256, -0.16571374812754178, 0.23016500644065957, -0.06907316016646217, 0.7536556380473446, -0.21249812880457453, 0.2075020493177654], [-0.06548446448064828, -0.3740487335954026, -0.28366725115564934, -0.40423811862754144, 0.49982190592171927, 0.07642952207751354, -0.1766692937521407, -0.1160185558892273, -0.019660979503544146, -0.012233370120478452, -0.10177697002926404, -0.06367261519987023, 0.33509447896665007, -0.02475649194693659, -0.08423260021875686, -0.060963136419335553], [0.6002930654601653, -0.2618168325167443, 0.7221269393867629, 0.21222353605962654, -0.1165031754981735, 0.052707098345070584, -0.07055587713302884, 0.04067775651201254, 0.08590255820476264, -0.40815258823929246, 0.2068352174936361, 0.36489587136977847, 0.07448486930761455, 0.6125829243196573, 0.2987250925646795, 0.3039044185905833], [0.057896921354231363, 0.04707170092378587, -0.04085634492295919, 0.09423118253135862, 0.08476549423567194, -0.5788985164487637, 0.23187041347298634, 0.32760236395228765, -0.04613559534991441, 0.148835228411857, 0.42543658523672173, -0.1889816420036839, -0.20144540630231786, -0.08776608202564583, -0.1159221853542261, -0.19264240707766064], [0.8301545910950204, -0.9491774522057008, 0.5957463896271361, -0.1903444323813017, -0.3235445474534304, -0.11879972720333883, -0.0658076055137955, 0.11518269918458357, -0.023750770025086326, 0.13234874080436224, 0.06284013992310494, 0.069999237106525, 0.40427284552300846, 0.8017943958925121, 0.29842097863344214, 0.22919521944517507], [-0.026102852153731173, -0.26916379775340477, -0.09650648170213064, -0.37693618943505924, -0.15102758764183355, 0.12449653908245796, -0.2980988710146379, 0.1955282641956997, -0.0530208302051879, 0.2872423859140838, 0.08189423744737305, -0.04925964685846528, -0.017888351869918075, 0.36982111952938673, -0.25381646444725675, 0.27628648209322393], [0.20409850247924935, -0.27678012684083014, 0.11792834572731331, -0.22937809671863976, 0.15556225193025147, 0.046023551612739695, -0.1584291045977316, 0.08841552277395526, -0.23417473036231884, 0.01712539858629821, -0.0014931116074720988, 0.18159092770305396, 0.17877014238480532, 0.2584319435242256, -0.013456299082133123, -0.04215564349709188], [-0.16372768508160573, -0.07939408090616902, -0.3447630596119104, -0.15790440911474463, 0.20906936562968587, -0.03670458779999916, -0.22409239697290464, 0.30418189047747435, -0.12632885336375904, 0.23039483297514807, -0.07553230136032762, 0.13924655058468452, -0.21934231866980455, 0.13067353060551176, -0.06580212458191735, 0.06990615205569267], [0.20298535732720635, -0.2834490505476969, 0.35742082927588714, -0.4129897000480551, -0.2017880047460363, 0.04357777638550966, -0.11192970894569099, 0.098267597844062, 0.041094561548098665, 0.06871979723569978, -0.03580592659774739, 0.08258384448530885, 0.03371734330781209, 0.38697308617527465, -0.003351032609159239, 0.10647339544444041], [0.02575700922203667, -0.03976386526664642, -0.06380206084325962, 0.013373377060484113, -0.03717769478955182, -0.006463605584176711, 0.04787976771596181, -0.020756849401091473, 0.0702374886069899, 0.046609209549991634, 0.059392640955303486, -0.00841599570430608, 0.0023413807912141447, 0.14672816406389386, 0.10804610186161435, -0.05735807865699452], [-0.5486399645721357, 0.01404148027279909, -0.2157480446004694, 0.10182536115764475, 0.06277938779764627, 0.24046707044598928, -0.004922059456131489, 0.416004394972974, 0.023260276224164864, -0.11746942681676405, 0.3160788648964607, 0.07538223497440714, -0.15745366521461213, -0.3306791820622279, 0.19594865021591093, -0.31733843742550566], [-0.30993859076856894, 0.34130909171531815, -0.24437709135273245, 0.04403622918412796, -0.24152989391952714, -0.30826131545737034, 0.27438322730892795, 0.09622756119698098, -0.07000498976129693, 0.09928066963936245, 0.2680167931268853, -0.07526228514936519, -0.32106795109740527, -0.17628529405665877, 0.33609477151685124, 0.0031161212533190328], [0.7962835275853141, -0.3533096816445258, -0.09276290937862032, 0.23170900836649522, -0.2764577687342806, 0.27173792533042646, -0.5336643468657957, -0.29913978190724405, 0.052149982967292625, 0.07653991494962788, -0.41492740569233416, -0.30692828829108815, -0.0011888978858847392, -0.5305277773532417, 0.24451678297125742, 0.46878145688290496], [0.08572092071538923, -0.10188894392252698, 0.2771103235170563, 0.14644730092856265, -0.3659100666607536, 0.5095227840725722, -0.2797780933304052, 0.11840096746549399, -0.034738652990179024, -0.1112461019677682, -0.09418493741961768, -0.32781524448458277, 0.5129211453154686, -0.16729601707900846, 0.4702438566130531, -0.4682363677070725], [-0.2691502573318458, 0.21188686782954438, -0.08847851712738765, 0.215440932257017, 0.03896967414102099, -0.2706356691236923, 0.20974502809982454, 0.036052294148563445, -0.0038948543160988625, -0.29270165888298194, -0.0770841683268074, -0.05373242419737732, -0.03853054264944051, -0.14217130498852226, -0.21106123524921813, -0.4616312036080012], [-0.21415393801741206, 0.19039756850461584, -0.1914967076867133, -0.04706592437021229, -0.22327548837601136, -0.5667854326076109, 0.17867480576146372, 0.1674692526766058, -0.052876446139310786, -0.009027393183393807, 0.24841595281275503, 0.03501117059994456, -0.4361634578941816, 0.10528165148115878, 0.2688977000954378, -0.24097609477264428], [-0.5616389855610135, 0.016367591979000635, 0.04606034186504574, 0.07625987116489515, -0.19563842889034402, -0.1184194871018415, 0.3377974887994031, -0.0016139584603762406, -0.03026775356652092, 0.018588092735924162, 0.42458736205573566, -0.31981471949990464, -0.0047303843261770435, -0.5709722558413793, 0.24107324337248467, 0.01905898591697402], [-0.3299518747229726, 0.13393556292341002, 0.06597502273287506, 0.0010037614622658178, -0.21480028126363843, -0.17676999051639844, 0.3600064746441876, 0.19086706949668658, 0.2949016651451764, -0.10660764450864393, 0.3652097446125195, -0.3615463757682385, -0.2648110233650653, -0.25163034079068225, -0.0036060509089161003, -0.3875964364536632], [0.05362549357675568, 0.005346325729345502, -0.11992437841569858, -0.023860072979966836, -0.15925998432851893, -0.08588148187536358, -0.11645092672170157, 0.1631238597911766, -0.010127317800138699, -0.01874477424100584, 0.20795876889906828, -0.05172297377084027, -0.07710788636033368, -0.0008780004875923973, 0.24444092007748455, -0.13758450785387316], [0.33026185738847863, -0.5404783206396367, 0.392255913577437, 0.18266095567513743, -0.3957276448306482, -0.39071852722332984, -0.04193516329487851, -0.022008330006460047, 0.016474275897305993, 0.2860507864081851, 0.29243092652655406, -0.05896448053320756, 0.20962470053501847, 0.1438500441313421, 0.45923654860541874, 0.2758933354018086], [-0.04285580638565355, 0.19738566987706618, -0.42429109508688945, 0.014850569028336754, 0.03298992635149023, -0.26475444008798105, 0.200871954888043, 0.3054046720268352, -0.04976165487687729, -0.2602433474371375, 0.12509171409822253, -0.19724994231770265, -0.26402230447822905, -0.12404035606140794, 0.15438689220255192, -0.241952405738589], [-0.024758997378931884, -0.020565562180035753, -0.025960581915119556, -0.09850039557900243, -0.012724323821388987, 0.04722478544451331, -0.06267792664908449, -0.07504402831076079, -0.023721883034765887, -0.08298978876068754, -0.023593585543220046, -0.05878891733657982, -0.0349127681677496, -0.04305984456394425, -0.16233722192651173, -0.009500572022087338], [0.12711264316786777, -0.30275784031699077, 0.12886970434592832, 0.04511622495067858, -0.08125207905780404, -0.5221398830213015, 0.5569422353809398, -0.07486718892259742, 0.14337926154594768, -0.32900802584956307, 0.13330096655968843, -0.3601352303674333, 0.21756800254793757, -0.19255418131304433, 0.07041642495264856, -0.3983647159853647]], "wpe": [[-0.06504068839323171, -0.3764986236996008, 0.1531423228392719, -0.09673774173531412, -0.09684610754654013, -0.36969177315844914, 0.5214184988769525, -0.075359736974983, 0.14054355992709117, -0.3595144984836159, 0.2380408735324374, -0.39747212818853034, 0.14966873134448822, -0.07450132011464039, 0.09204988398160378, -0.16911276064547373], [0.33783549327065543, -0.05254694395295761, 0.17321557978182736, 0.2292733217436118, -0.2011076823454074, -0.46807286408109244, 0.09371602357245513, -0.025796193134590913, 0.0054838657284605975, -0.07889144735316456, 0.05378007093683609, 0.1377266410649897, 0.1270745174453804, 0.0828118234335152, 0.5799721854447434, 0.09245879680578391], [0.08996269784660293, -0.02660027108916736, 0.037483620376991426, 0.04142666990022518, -0.30807735532457375, -0.5229548854971545, 0.635894244659634, -0.148571663999246, -0.04598887835026452, -0.27429257900610315, 0.11757531290047683, 0.21567358664615607, 0.17075879105088407, -0.1359746208773701, 0.5113938369700749, -0.25446817702252894], [-0.20545823632740154, -0.30724503026341554, -0.03340038704055817, 0.05556787173951761, -0.06202065222760216, -0.2907653154383231, 0.677049643283013, -0.009006193287638367, -0.22028518683347756, -0.16271029515242705, 0.12756139748255121, 0.4125615306048893, 0.16556225404881544, 0.08787859097784793, 0.06641547910022302, 0.0820001910110936], [0.08343129710136568, -0.07384638703376101, 0.21988884410837534, -0.3257795210614901, 0.04337029887021213, -0.1997978268738658, 0.061977830239583385, 0.2956387946945054, -0.26176517457090237, -0.2647883095697498, 0.2508980774675777, 0.22736142014223462, 0.09797136540653044, 0.33005907243188176, -9.307974682641993e-05, 0.06135819260017675], [-0.041143890078315974, 0.02148391889645659, 0.07829901074751892, -0.2732632661990023, 0.22467368565773962, 0.005984997032657518, 0.10415791295614311, 0.21109340079814712, -0.20046096267204816, -0.3351212608170755, 0.22896982301271376, 0.18525389986442914, 0.004008870115338884, 0.28683795425718833, -0.11256884390950564, -0.061285538142325555], [0.016749519852741982, -0.011823567410976937, 0.16625470211568588, -0.22920319142820317, 0.16224420825722333, 0.14836996029876956, 0.029906790463177076, 0.22843585016053647, -0.01516886874658046, -0.2853894443293097, 0.07938423457489235, 0.0030998490605339984, -0.06425500749655101, 0.42914843041342277, -0.22738108172867855, 0.016322836971963305], [-0.11281072639100348, -0.12878655915254275, 0.21474366756038862, -0.14459156752247126, 0.31782143320529405, 0.0354226705970778, -0.040301395687290534, 0.13981243741718113, 0.023619163121526416, -0.13677290769639344, -0.007740486765031708, -0.02438435367207809, -0.0905330303878836, 0.42060049065543326, -0.14911211112658082, -0.053000363451546705], [-0.013899216805496955, -0.21968819226452888, 0.07931991562262633, -0.2893651485531755, 0.3155999001417497, 0.16475153480875515, -0.139651954043634, 0.03908789134094248, -0.017020422403436593, -0.00011297451780426964, -0.1458751067838172, 0.03884522425927923, -0.2646370850674088, 0.4430439631662487, -0.1956002441370025, 0.026037969370166687], [0.014821164237810743, -0.1824797811481586, 0.0685027712514162, -0.2831944573335446, 0.3545807841560358, 0.15017099740503131, -0.20002887665812435, -0.020169009464285025, -0.08403952896575718, -0.004176473056179265, -0.1597537155452505, -0.038912885433195946, -0.28523909555514715, 0.3260967887023623, -0.22686121897830358, 0.10035586115198096], [0.006963832660506889, -0.11825644962639811, -0.08488746951502038, -0.09302419352833817, 0.151635564191544, 0.26194738970403864, -0.14313374371736226, 0.13013328333688529, 0.2189460416185232, 0.061205096049260437, -0.172268624607714, -0.012139023181062756, -0.3407947560821504, 0.33815260663108726, -0.23573945971230778, 0.10601748928857695], [0.033509532111770705, -0.2424501594046375, -0.16679362778157675, -0.2742372297701708, 0.38944709038706504, 0.25228878172815566, -0.22166357530497394, 0.18701864840701582, 0.16463133961468862, 0.18834571833753158, -0.1063381950578802, -0.12365441922398478, -0.20850174079564343, 0.2598325081999188, -0.20679093155601455, 0.1420599151828337], [0.11152741524519683, -0.13696471729609, -0.19481683121476293, -0.2478316425122574, 0.20413947940338809, 0.18490845173807452, -0.28264517925839944, 0.20264277645361103, 0.0705444970958979, 0.2123844708702264, -0.12674481302553195, -0.1021363160145138, -0.24361160614031951, 0.2845141608303808, -0.3049225993725531, 0.31301760922040917], [0.06465282278059434, -0.001955171601018993, -0.328596453851519, -0.14061125614419379, 0.26655150892912816, 0.26059744744691976, -0.22686821403076707, 0.08633853705841897, -0.026834746263538357, 0.1344255185455332, -0.09012408393548521, -0.04944730627524492, -0.06051401495095427, 0.13507341809530607, -0.22691216910545892, 0.2620494946112133], [-0.03454227639999282, 0.0499146478290597, -0.25864666745787784, -0.14751827928417394, 0.3271666616253142, 0.21841609546656665, -0.27755225388392446, 0.1921712431301235, 0.10167809026272727, 0.3388003788767314, -0.24999156846754822, -0.08187963336196503, -0.2535158447701217, 0.15676812172593746, -0.16243399571798614, 0.1971653967428496], [-0.1261972975500171, -0.12468555407224768, 0.07894354843280818, -0.2135935642141768, 0.4436652629652949, 0.29985253488458813, -0.47529602542501825, 0.28548735910137435, 0.06771591282201633, 0.16957490523063315, -0.2709560910442426, 0.06780890330414692, -0.1346919385627569, 0.2630148171758201, -0.3007734928944488, 0.14181175215088246]], "lm_head": [[0.22840192049902283, -0.2516364741722836, 0.20551813331322877, -0.1377756219643694, -0.1476742421818706, 0.06835496746964949, -0.06923115406353944, 0.005857332117410224, 0.052299548946255416, -0.17553773979732204, -0.08297508935509906, -0.08867734341290927, 0.11666408610093, 0.21659217750103155, 0.14694236802522656, 0.03317762955942639], [0.008430641383838623, 0.020576947351722694, -0.2457432821242288, 0.4371800960067238, -0.2550882900777075, -0.13900045848297432, -0.039281236606463946, 0.18770603846064318, 0.26819355152634833, 0.4134267939101699, -0.4735764841082983, -0.1044891030249543, 0.11494022826947542, -0.7346102430941034, -0.10083409496354336, 0.001168657485298553], [-0.3094603550988799, 0.04035099136125786, -0.2485335579588736, 0.02583985169900422, -0.24672288794884964, 0.05153582857599277, 0.12674209892220317, -0.1420213450913186, 0.00343850607958382, 0.03276064098276587, 0.04183131678400632, -0.21072260737790757, 0.12385631225317657, -0.41654884722781904, 0.0784981129972072, 0.0037513962677178576], [-0.3180660050736426, 0.3007883261869178, 0.17773525693417108, 0.13032760917494085, 0.027999912309261462, 0.2274540424931788, 0.20628992656307957, -0.1817794030673049, 0.22735001417374007, 0.2939438373730256, 0.07268452148429198, -0.3162373419945948, -0.020813471777003732, -0.1994991495382002, -0.20607554032894798, -0.10244081580118822], [0.2771849433978047, -0.31057255312587645, 0.1769328359715326, 0.015951519306845744, -0.09216764228853848, 0.0624886665425835, -0.10196361585100365, 0.00013289734575650178, 0.10164392311098087, 0.07102135520505906, 0.019018207032489968, -0.0629208197213115, 0.13689698562075253, 0.21782307462770234, 0.101732073519768, 0.23262203344120938], [-0.19522025776233884, 0.15539214401935764, -0.3423873248409417, 0.1859712360586899, -0.19747134481335332, 0.30908299865129496, -0.15182266449177778, -0.003810260486676537, 0.24086801862442725, 0.21790609553714016, -0.004334848401867334, -0.34562631727400583, 0.19888136871261658, -0.8468042073700165, -0.035265713156733054, 0.029853046902735384], [-0.20777617399542053, 0.21391277002216502, -0.2964278377199288, 0.12154153643936118, -0.27284259819938644, 0.14321338639571313, 0.11811103215087941, -0.14482185035442274, -0.0385041140988674, 0.32779006603415345, -0.009978858461703854, -0.11931849009605092, 0.022044118099054346, -0.4951959062412141, -0.03528598426531336, 0.1011439978140036], [0.10689370338795917, 0.12447364286728503, 0.15797257703642398, 0.2408101075161507, -0.2865191022699548, 0.3841642182683904, -0.5065035332312751, -0.4246158577848314, -0.08560056941324773, 0.16343717228126192, -0.03650131850807828, -0.39367821994197333, 0.5422539688126999, -0.29399365931257215, -0.19607467166059725, 0.24391216662133355], [0.20830943938651422, -0.07945190962150189, 0.12904938614540515, -0.009486288127428263, -0.1000398113946365, 0.05283129516535235, -0.12052768953636434, 0.07737765266684007, -0.13484882398376516, 0.1186558726621037, -0.05986070193941223, 0.22107344853076985, 0.16678373179337055, 0.1579133363301379, -0.12289650568893538, -0.024377315292873625], [0.0766602891684453, 0.3728573098553047, -0.5254727941230828, 0.2763934797174719, -0.5440857844607849, 0.37038657767477684, -0.18911980626616437, 0.05265776313463257, 0.203358177647164, 0.3657890675883421, -0.17453748731530774, -0.4342368991289321, 0.3985286668318036, -0.9590562954374482, -0.24313241746327602, 0.17654973139425062], [-0.11629445152939867, 0.3281036757038311, -0.3535999059607935, 0.48415944716878073, -0.6494244378790706, 0.4279738486120665, -0.2435694760657371, -0.20231857419900987, -0.16118933498590846, 0.16260207981141567, -0.6298718642895953, -0.36345785796308133, 0.44376578851510523, -0.4384906872936732, -0.36375889183984217, 0.2826549021700922], [-0.019409475433150015, 0.416611533558913, -0.03886137187841655, 0.4349764928198422, -0.17179787756122616, -0.08638963894356613, -0.029853976179385813, 0.033731764280452076, 0.07875656058279684, 0.0838688017562994, 0.05103265488426272, 0.01233918099412931, 0.07636837565741673, -0.2164307396884125, 0.028895974513436992, -0.08910961334501444], [-0.22266807754492268, 0.10434278036617868, -0.31081043857387514, 0.23176509262329856, -0.18750988444095787, -0.06373553749086923, -0.0007320383780734409, 0.08342530628590247, 0.23938328885892904, 0.0861931781188676, -0.056959026511192105, -0.09226468206040125, -0.19920221319901268, -0.18420050532804383, -0.1236585212757031, -0.17253101370886495], [-0.30771866644176415, 0.631530915368786, -0.3959178781344456, 0.10200399699523492, -0.17267630814814483, -0.08196597063049407, 0.08750994465924337, 0.03284311406348441, -0.006688701895516453, 0.06396645548717472, 0.02877099246758784, -0.033847270718575795, -0.3096841263813049, -0.23334238803023605, 0.1776549810531303, 0.0713735041738603], [0.3331991497891383, -0.19876310466313712, 0.06342222744670296, -0.1058030365876896, -0.08404788061895165, 0.23515113949250663, -0.18132279939613294, -0.12902303762687878, 0.06672067483954727, -0.13598260498493325, -0.41141094853027366, -0.14678874122099264, 0.05245423536341879, 0.11574844481388091, 0.026848055806351676, 0.22382945120733982], [0.05917924573988419, -0.1701357489097599, -0.41642836974528363, 0.28506249372605125, -0.07110893187622534, -0.19591741318225503, 0.032623661719056285, 0.2047830422566526, 0.2486671698398472, 0.19798799825727798, -0.3895224166537584, -0.0915316063723489, 0.3674830567373951, -0.7679375466615267, -0.17103184675359173, -0.06788745592077282], [-0.2334313537275628, 0.4691818557377648, -0.5944675102562428, 0.24348221492817074, -0.41371926135936904, 0.411512349890797, -0.37964051454285713, -0.007246820859756865, 0.19465996569748417, 0.634969604719812, -0.4755045998004725, -0.13966623102587977, 0.25057823587219585, -0.94555259663645, 0.019833025657240457, 0.36296925501119365], [0.07422217390527718, 0.3168534627422634, -0.01236129904073841, 0.526844662096986, -0.13547366497886174, -0.014215971063900708, 0.07954618515344229, 0.14875500404750117, 0.20781184540245812, -0.27250522088404905, 0.10565438524304199, 0.2921270058828769, -0.18356410122472427, 0.0057938682797144345, 0.1247630532424308, -0.1634007954237528], [-0.18071965826249922, 0.06516008155189107, -0.3926649710093413, 0.10858385235531971, 0.29205073944311577, -0.05847144549815984, 0.027237250708000177, -0.006263284166441487, -0.0009412446011221885, -0.0887343545476714, 0.0920591945357484, -0.03395991642748686, -0.20812488229254605, -0.3164812234103772, -0.05192594382425103, -0.26597938502952734], [-0.2534958649029032, 0.11968142233618521, -0.27251083242998125, -0.1449595766840553, 0.20789417231323984, 0.2100801452322697, 0.14115192522265824, -0.1820620275935274, 0.08711661877476722, -0.04861894366656149, 0.02990968506492488, 0.007130040483159397, 0.44367477073181694, -0.1728318218707975, 0.03448297853415434, -0.03774517424735404], [0.210095236201051, 0.12285485793801079, 0.0396928337549378, 0.13606306359592943, 0.07207711170495984, 0.08906439337841324, -0.3569260905202346, -0.1635989132184862, -0.1866141380700995, 0.11411960194684734, -0.3731683320506643, 0.19053064831369235, 0.06935623781771565, -0.05876691269062036, 0.19061928326180905, 0.09542475689778829], [-0.3999208640557517, 0.2216234192693562, -0.13657283352908484, 0.271201016973086, -0.3366832934952946, 0.2883214900822655, -0.1062042701121948, -0.12558755110744577, 0.0900268723471134, 0.30206878427281486, -0.05060593098460585, -0.368643521526347, 0.1063318957856814, -0.5448895948425114, 0.026077058775095908, 0.0004635597548283685], [0.030626899692517418, 0.25627182312147384, -0.5697502533082575, 0.37086205795356353, -0.49553704910519114, 0.3600041018799086, -0.4807853689717471, 0.1006717999811416, 0.09347511185647404, 0.3546489426013439, -0.776375918276377, -0.2737687025822355, 0.19279876525212625, -0.8072658180816595, -0.1325447977769149, 0.13422982408739365], [-0.19888844547358622, 0.6538132622543107, -0.9006983470753113, 0.36689662736820666, -0.7257503399192989, 0.26848229292242254, -0.36298790385582413, 0.1557631555529563, -0.08697769658636235, 0.42024071445691646, -0.08954243461179781, -0.2740553878922963, 0.011839514324349818, -0.9391567181910219, 0.30820432710239776, 0.6429155235939475], [0.052522557720355904, 0.43379153534080483, -0.4921173023934335, 0.0854561900833441, -0.45579757667719784, 0.5886554758519011, -0.4945775117174747, 0.25209331835382504, 0.05028826619626885, 0.5152347346884392, -0.18628834761376306, -0.16769244710588446, 0.21875189826258162, -0.341357142732659, -0.27498652095352816, 0.311671808302377], [-0.05840272771350204, 0.696334055856778, -0.5468161892162186, 0.20696261571957925, -0.23989840929894177, 0.524230661092545, -0.21580099568789973, 0.0873911007923929, 0.31965527497045176, 0.29301431863771527, -0.34787078651945874, -0.5378946812813424, 0.024708289740971588, -0.4594911893094346, -0.302940347657094, 0.3549463327161344], [-0.0532282726811532, 1.0617929613046089, -1.7106876202124035, 0.6507783087750695, -1.1701035950187748, 1.0816932131700208, -1.0833125397832224, 0.036505393821561094, 0.4991990812670443, 2.2329618906056474, -0.9626026129543941, -1.1056375512277814, 0.22639860819256616, -1.410380916344288, -0.9235849178803744, 1.5231253819496104], [-0.05104086655676583, 0.1305063463061502, -0.26287692323268524, 0.13774548561226663, -0.5978025043243433, 0.6591018050401182, -0.41196329493035416, 0.20478380783511926, 0.33333228857554326, 0.7014791989551385, -0.49119125388131496, -0.10194882307408086, 0.1195614021831899, -0.22633785936831288, -0.24257790708367105, 0.5205464627193559], [-0.02322517616836062, 0.4247663655062002, -0.5733274860645114, 0.48025894123311563, -0.7174281292514929, 1.0715304225980968, -0.7616848172471694, 0.22719221513031368, 0.5485524764676113, 1.0018891895627102, -0.6527552526493323, -0.46752190066645777, 0.254409219770838, -0.8689967982093348, -0.46110341894967194, 0.9936326917997487], [-0.1455942427246995, 0.15950659628943123, -0.5554035532274751, 0.3617173777064591, -0.4300408387782842, 0.8773505686775442, -0.8137617272639437, 0.25251089596698323, 0.06552914166049802, 0.41898597631887735, -0.6991067136740775, -0.5640920532488491, 0.5571243769696762, -0.12875342864574724, -0.1818993639016862, 0.0914264905693742], [-0.17218860068228506, 0.7993719202630576, -0.39839546615401905, 0.35873331595689245, -0.10153609836747964, 0.9040719863037487, -0.23099642365227052, -0.08633944073555967, 0.2242301713867209, 0.4562733730173597, -0.2249173003102081, -0.3813680698130879, -0.056385636161019506, -0.30779894002277175, -0.2963361997872018, 0.4369571817051824], [-0.0018107209426033968, 0.23804649750372112, -0.4776372675113758, 0.3164415428570285, -0.4567819681306712, 0.5152911425191304, -0.6277500921290784, 0.1894569134914522, 0.13249027561040438, 0.8100164256576954, -0.514462680813529, -0.30703324052410413, 0.26866357102260235, -0.5355709957801856, -0.29574611196157086, 0.6390876610132852], [0.01373508424995901, 0.5816626330972569, -0.3912769227737257, 0.5405239662116751, -0.591282061458345, 0.6882917833581654, -1.0290475314862653, 0.16204993602809162, 0.4148737977676412, 0.6895933250996553, -0.4875970249388275, -0.3113752432636275, 0.10822747782692145, -0.5639947383932781, -0.16325532299370024, 0.9678539853622943], [0.06408797088099553, 0.26191086919280543, -0.2604858858663938, 0.3761883850641962, -0.39723491286752743, 0.33713502244214666, -0.6791430678377814, 0.20437365015936027, 0.1531217106101974, 0.5465178106289568, -0.3787280663222825, -0.11017276346999881, 0.20450505352770915, -0.3991261261677375, -0.2764862900654596, 0.4128954392131223], [0.2769585396701406, 0.43799207390424066, -0.7539155081461184, 0.39456022755490183, -0.5206331870734056, 0.7934221071788393, -0.8210749228144165, -0.07303631736332543, 0.1309459229489071, 0.5598356655376737, -0.38870911163301497, -0.4780038807434481, 0.17812091553003465, -0.5633831662375014, -0.3147055501688153, 0.6103296890965031], [0.2612323589497878, 0.48059998820803057, -0.63336924344612, 0.6275619260205954, -0.6206269151997724, 0.8459357685970292, -0.8232158566762184, -0.01431172309318888, 0.40038690226533935, 0.9181795894368238, -0.6723192651730484, -0.35306503403305245, 0.07073067027165311, -1.0206236066474694, -0.3802328213359564, 1.2502851771674457], [-0.22348555929908154, 0.37307927614109765, -0.6327799289396766, 0.2023349020490435, -0.42590089179903706, 0.9070852567463491, -0.7411006508505321, 0.2276442404803339, 0.1775432037906979, 0.7787339268619711, -0.8636695912806446, -0.5513931087155217, 0.26709688623072186, -0.4149242522001059, -0.23381795054652255, 0.22370823301798032], [0.006565670747344746, 0.7206665068482377, -0.6429330341866711, 0.6156229008843949, -0.7985673126707014, 0.7366148060103856, -0.9445348204150014, 0.2368133789962023, 0.23757324817561862, 0.979170549317719, -0.8805780579536805, -0.5248628030205629, 0.15646150002388653, -0.7085859331653975, -0.47934744793786144, 0.9435394377167525], [0.11025776621471485, 1.0187437595993112, -1.6120236661210385, 0.6917113199374292, -1.0115986775359964, 1.2846197176060274, -1.059276767862545, -0.003526922570831751, 0.49356111209373194, 2.0065790801235734, -0.9829824069227918, -0.8444597244841497, 0.1569325340353898, -1.5280572738059481, -0.8685275883424314, 1.3786362996186874], [-0.2811090887698323, 0.04424633711913977, -0.19722321395538367, -0.1303097957648088, 0.46860243212440844, 0.29215824607957225, -0.24668915714655776, 0.20099206831538358, -0.051000198112091305, -0.0014698825329739875, -0.09078730408559067, 0.12746136555896445, -0.24356418772997454, 0.10183026918392861, -0.5125048562410269, -0.020111868636556708]], "layer0.attn_wq": [[0.04369029309437994, -0.18792393519403772, 0.04187394570936955, -0.2334874365975445, 0.20190115970503036, 0.1384538303672673, 0.197012373431626, 0.06814055445177379, -0.19550673453844972, 0.0607486448556656, -0.2854041531521395, 0.28363918273158667, 0.12009489220744739, -0.17967558973044764, -0.17555697699201767, 0.03422129601221625], [0.005969977106379304, 0.20098633187873619, -0.03875019578435931, -0.12787791640368187, -0.18652360869343887, -0.10859744026057425, 0.021818121082668406, -0.005942012559470971, 0.10157617773130348, -0.08987647705275426, 0.4087668968605897, -0.06508962847131575, -0.2696888051618145, 0.042206313139842265, 0.2824437236816768, -0.13398288689469745], [0.10034722163373556, -0.21425201686019277, 0.1283001045362319, -0.26154843867729843, 0.3008256143399847, 0.2535042422669977, -0.018637294390900838, 0.065405247834721, -0.3246189821691996, -0.07095704293170065, -0.37678560437900666, 0.2177165537730678, 0.2514916575581713, 0.22281467331452803, -0.4370738797776499, 0.20357016027287103], [0.2374673017252735, -0.12752471014868808, 0.25991878419269976, -0.1753449687403773, -0.24954005803342982, -0.21653296953615908, 0.44338021121549853, 0.05191846310347695, -0.10915366130233659, -0.2559182337275742, 0.21193396752448912, -0.037840061661952785, -0.03921176969071002, 0.12114137473807303, 0.47177859302380565, 0.22250461524038037], [-0.03406914478740077, -0.3017029568933702, 0.18029905037854632, -0.3125634494713866, 0.3790992728323962, -0.11905022052983939, 0.1319511950556876, -0.04293571379522188, -0.322287729224612, 0.0519234650840189, 0.16817851466608638, 0.009813384406169297, -0.045696565629536987, 0.4010979479858631, -0.40615577799554803, 0.3882670609362394], [0.19912125502681663, 0.1048772479502223, -0.09511669895445271, -0.0862687939966483, 0.11853586698673274, -0.1583172066877195, 0.0643323680173049, 0.40705865750830605, -0.22963465462705565, -0.0866811815492084, 0.18403554766016625, -0.193531626624219, 0.19334140695945495, -0.15966140625578198, 0.19272266114336453, -0.5356227670400737], [-0.07798178610617613, -0.056544083250722424, -0.12780319364555587, -0.6177883492032601, 0.5511748245505792, -0.18856166583820103, 0.08294666244183459, 0.43170870403020073, -0.19226354563155207, -0.06785001271314947, 0.1841030833478309, -0.12676303067834777, 0.07584948019139247, 0.034760742384474776, -0.23595115812145695, -0.4427045060788203], [-0.0356447144470362, -0.5217292467827228, 0.15655413294478002, 0.05626099213675052, -0.21621232358283857, -0.16654367542157056, 0.08655478212942867, -0.3767808577986784, 0.011617002155170338, -0.007675913461202867, 0.17545078262416466, 0.29042986179828345, -0.08183434778980855, 0.3149053139226525, 0.2647433081058448, -0.040890416794422665], [0.07157511321987023, 0.024730186024051484, -0.11128265754396904, -0.01694589156346262, -0.0713892628870427, 0.15964182445370292, -0.1523158332194484, 0.01262453933388131, -0.3072607470348433, -0.06602736123163055, 0.009765697133403672, 0.04932707561520929, -0.14057533535331102, -0.11722364693885483, -0.14450388011165471, -0.4061362072850173], [-0.0455093122611248, 0.41244693585232517, -0.1614355534335774, 0.42705243429891854, -0.18268236700662904, -0.12360753650238822, 0.05398484334501714, 0.23645356583262273, 0.14967700772008075, 0.04446327115158273, -0.041573482038015204, -0.14137006653891765, -0.1526975525155253, -0.30136675141435487, 0.054200961876755695, -0.0561749257512235], [-0.1725441874744606, 0.12423586843682065, -0.3921971126378654, 0.03852658971037173, -0.07720011516666923, 0.05912640338429898, 0.08724773143598909, -0.19396888894149836, -0.24837358463671955, -0.01678643096705955, 0.06032382046273152, 0.15115573149930528, -0.07292678685351621, -0.42802566289228516, 0.3316609345085816, -0.5649889802971017], [0.008528116616900352, -0.3303065211732787, 0.2913216785708867, -0.34595433356939326, 0.30688098603377173, 0.14337064355340304, -0.07280506816497627, -0.1555355137391222, -0.282907291532701, -0.0037050427859519177, -0.07586070877124104, 0.1822945096792171, 0.19832587722896688, 0.2225749623187431, -0.033623662615372474, -0.04604979373437364], [-0.008409384464403544, -0.15439928668053807, -0.47155094494470895, 0.20466237412908533, -0.009340447929121063, -0.004497452254967986, 0.1540250471732717, -0.06701306164078905, 0.06849996156453328, 0.09241600846729014, -0.2303247638032286, 0.23828349867457832, 0.15488320276005343, -0.3026768775254435, 0.22456953573885008, 0.0542243039439177], [-0.0752543038188054, 0.2563422133616615, 0.32240715845530665, -0.016997756673919968, -0.26949486406109596, -0.16870790279726164, 0.21509947781349323, 0.076142278828036, 0.04742921413611699, -0.11328084990668033, 0.29245650721251654, -0.082605357823956, 0.09773968063140594, -0.08917325319311817, 0.01549487383852253, -0.13814673088714213], [-0.2617665809220391, -0.17324296659192945, -0.3245060915054002, -0.09329416418881478, -0.1623974814438223, -0.6264217084815802, 0.13493716764051952, 0.7060029104381343, -0.0767266447008052, 0.04435213726395302, -0.034485616442699776, 0.26220736160763675, -0.055574156566881486, -0.014021616346319578, -0.26202371985642625, 0.2674194511600888], [-0.2555111386059656, -0.04834749672205249, -0.3538861575536027, 0.05533327209791573, 0.09723562801010642, -0.32755742028110296, 0.060171721480944275, 0.7284061379218387, -0.2056409656434449, 0.2257728236022959, -0.34602648287694404, 0.26427710876931937, 0.09927722354350124, 9.925290138947907e-06, 0.017961696619852474, 0.4846572100898914]], "layer0.attn_wk": [[0.11325540882805903, 0.06510704283616044, -0.15684691007634524, 0.19275610638722085, -0.47030026818989185, -0.13618831996483272, 0.10943480339703278, 0.07097115218989843, 0.054702533567991374, -0.10377251900955796, -0.08542695216360043, 0.04267197522665395, -0.08560904215426385, -0.16792746786600107, 0.13897055227749047, 0.06436279469842916], [-0.21763380021452025, 0.012177203632188681, 0.18646728395174042, -0.10797315222776767, 0.10029776766835306, 0.3036389275362012, -0.23078664520338335, -0.015268009264701411, -0.03238209951916069, 0.08545035588667177, 0.15330603809181084, -0.054084214002079425, 0.052863971082145536, 0.37067925750647807, -0.10739886683434387, 0.11285201189473079], [0.21600095730685803, -0.12769525964920625, -0.4218766104051986, 0.04540032629943761, -0.3741597369072548, -0.29264462750702536, -0.26605882428316646, 0.35799080255252125, -0.012552335471433137, -0.15716418340500188, -0.061975510901135795, -0.03549322341295551, 0.16167237522853115, -0.35516708155463983, 0.1710189355948734, -0.013060708454716017], [0.04107837502809403, 0.2972467053812341, 0.02158397893736991, 0.16530889615418953, 0.08916455645030118, 0.2292072364504679, -0.33303810189201294, 0.36569554585032654, -0.21181313581705954, 0.5110972478299403, 0.1991796425196799, 0.1270938955708695, -0.38534183733217603, 0.16829163752992296, -0.11613109504155095, 0.14900099209611853], [-0.1257076055454655, -0.18428478689239164, -0.18564980770192321, -0.1057282171771608, -0.2878223526635122, 0.039008744343743754, -0.14391431727165563, 0.18186789601991266, -0.20166878573760652, 0.7364621609499923, -0.4387189085544568, -0.028911025730547504, 0.3573295377874929, -0.1752128649758907, -0.011662227827691624, 0.5476794704328504], [0.2537865335693169, 0.33044147515750977, 0.11670309822677936, 0.07326744219764521, -0.12977504866935718, 0.3317750907363574, -0.2534151430634194, 0.19741081708241606, -0.0630520373486752, -0.19557905956718785, 0.18468312969747977, 0.17519294120694923, -0.009017687505390368, -0.08155304531131143, 0.11989966198767735, -0.26390564174688214], [0.22764200884722247, 0.038527950751182684, -0.044735993207275046, -0.07660961350889271, -0.48995179673882333, 0.28161968766755224, -0.45371506415020113, 0.39928637823881147, -0.00429405246255728, 0.14299724859598145, -0.30948090585553556, 0.0759855054364045, 0.2597055715166612, -0.38227845683690376, 0.1764445633812169, 0.280719790178664], [-0.2446341751009063, 0.1026129522023504, -0.214751536954203, 0.2215107762598985, -0.11202810254634347, -0.26477104758594755, 0.16162215912350114, 0.016738945667297705, -0.274610457290906, 0.2510176291811269, -0.036230796081420664, -0.11546514473339063, -0.15220925638476568, 0.17560922869286774, 0.042215183205219525, 0.5839104683398753], [0.061166780695757574, -0.1375051288786202, 0.031581395140252155, 0.020116304281571233, -0.09479794790204737, -0.1550072276871323, 0.36434372051578384, -0.04342519024264181, 0.05635461849746274, 0.017218866159533837, -0.363137745994791, -0.1311167875655939, -0.1742664886986042, 0.2925032902939804, -0.20368498868585197, 0.1419102489479385], [0.3352099178585361, -0.013734304317610422, 0.12818642456624185, -0.015622506247183502, -0.5062834616971602, -0.1462881119814716, -0.20077401581338736, 0.16923439080625285, 0.3160952469708543, 0.4023493436776816, 0.27492401290871, -0.27920900141617305, 0.24279544314529888, -0.07105931395347988, 0.3551822393695718, 0.028340728112445566], [0.19759554142818445, -0.1437921926528576, -0.05976505884283239, 0.05490915061335069, -0.4737858489457113, -0.4695903080546738, 0.11228947664829411, 0.16983419738893682, 0.2358858405809153, 0.16137855408324628, -0.33128154762751705, 0.051034600804661864, -0.14240999398133594, 0.2629390279671875, 0.27553754290565713, 0.13918538930697513], [-0.36997119828656133, 0.10949149211029427, 0.06438733629128293, -0.10375634066312893, 0.3961921839658863, 0.006358768250614906, 0.14788593480565512, -0.08212423949947352, -0.04651583339262333, -0.3887170197920898, -0.21566694763778047, 0.21186916386751609, -0.22809027286438016, 0.14467678992605834, -0.4044477000985673, 0.05857103300476859], [0.027257928366644063, -0.08313575157417737, 0.05637071201055618, -0.02677177025460305, -0.44055286855724607, 0.09296787704511698, 0.0779361781398496, 0.01723171930353158, 0.13871967586726047, -0.34391091145768377, 0.03428903559970659, -0.14729231540548413, -0.04749571047363008, 0.19151966096948292, 0.13007582866746872, -0.07878022345698028], [-0.2205505796457427, 0.06758269196006476, -0.17769388973098113, -0.30291064309523835, 0.26484433334139046, 0.011950534692021335, 0.12332577879721773, 0.06672191430275354, -0.34191047281163456, 0.2640207975875015, 0.2330197452143289, 0.09452155171922, -0.09845958773873521, 0.1434831510667987, -0.16024878184488803, 0.16253398156433033], [0.22459538323205339, -0.1237027853666861, 0.7018727332349518, -0.41860205218839575, 0.1669018472459388, 0.36772407106595084, -0.005367829303037388, -0.08533549767080814, -0.003256388401033097, 0.3443594699541003, 0.38542993244036855, -0.309886733701332, 0.402368371207556, 0.1825945368766323, 0.10015219321252607, -0.13780073821874209], [0.22728684616564435, -0.0674345093366327, 0.7890335089066107, -0.2563358916972869, -0.028659679147688254, 0.3139683008494498, -0.09223563489350015, 0.08093622958103192, 0.46908683556235214, -0.015550366174126631, 0.11016346803308935, -0.3175687636115196, 0.2204900417139392, 0.10630293623069668, 0.05386430251902906, -0.05260658488901674]], "layer0.attn_wv": [[-0.08741584513397126, -0.06896579376811465, 0.05235206465333635, -0.0060018857143965725, 0.039486106960202036, -0.059865917367168446, 0.0038959510340038812, -0.0356502178034019, 0.227870213203632, 0.07600145052569833, -0.14770915097489407, -0.013741658570597042, -0.05103918378237909, 0.13416893086994974, -0.2021938939916417, 0.0022628898615812136], [-0.0205075555170799, 0.042016806923046386, -0.25106218396483587, -0.024591080274193582, -0.12142440896393933, -0.0723331100668491, 0.04037458743382581, 0.28109487741738415, 0.2496029867991625, 0.1373395930072405, -0.04978090925388066, -0.03823852305374305, -0.006419378319005369, 0.018987406492336052, -0.06640429879992732, -0.11021854323689448], [0.15726974904877583, -0.0032575084896524957, -0.18068480323355873, 0.03599706070741512, -0.0968226548903944, 0.039426435310672366, -0.061107489368997465, 0.10328387905935738, -0.2885667318886388, -0.020062594981732577, 0.03307221533040123, -0.13186926251985598, 0.11635249620471477, -0.06567399240024592, 0.17441742282715952, 0.12147659270032135], [-0.04528409309741351, -0.2426434977208559, 0.3032449508690014, 0.09780878630895948, 0.27907133671294665, 0.12177704599721689, 0.06247873736216398, -0.2217380564555271, 0.09906335794441548, -0.057167585439506466, -0.014006511764647017, 0.14990210883912722, 0.02065611639506649, 0.07640892995253307, -0.08919641103323722, 0.06925286435474037], [0.029572166540483603, -0.019599691800500755, 0.10904486643808059, 0.057951316598502535, -0.012826679567837352, 0.1440144501313454, 0.05896112758423069, 0.12362845369916396, -0.04604867633456376, 0.08389652082352125, 0.09882440398836526, -0.06599236970460809, 0.0604449422312122, -0.1498951849584893, 0.09176455115448225, 0.014539584096386624], [-0.09806695221198955, 0.15814070374657738, 0.027589382686970386, 0.0803551060083779, 0.40038096816192836, -0.04429207258999429, 0.2051677980856975, 0.07142129455764662, -0.015904583576798678, -0.07923448407631059, -0.22024560777970378, 0.21589949199380137, 0.1356148204179646, 0.02381847825643681, -0.321684238982049, -0.3622406862032078], [0.08251471632921469, 0.031661273292580644, 0.07858725748452544, -0.1448520173478943, 0.19845098341717077, 0.17132879380945676, -0.03899772393131498, 0.3002290172541371, 0.16033915077267985, -0.08405076280336002, 0.12606452680433541, -0.20301539355017345, 0.39048495907240677, -0.049921574040159594, -0.035305978062456986, 0.06586394542779085], [0.0736674307220256, 0.08061251344035428, 0.35167736975905306, -0.031419509027168585, 0.15324025783635634, 0.20520397934806428, 0.056170662122080585, -0.12624190572902058, 0.07686204756231549, -0.1476468706332821, -0.35226090875252825, -0.00853263276086446, 0.28584361209601716, -0.17662493435294102, 0.04451920784140226, 0.16321622411197967], [-0.029262657553720955, 0.19275567708553273, 0.14802670244348023, 0.10953861718401729, -0.0866139712670384, -0.20435356107803043, 0.012634592567135509, -0.026662165687441505, 0.0392681539032579, 0.07080337440655642, -0.03776762077455394, -0.009494186594538212, -0.352539719507394, -0.11560704192196268, -0.14165063887579266, -0.16708640744518968], [-0.27972078581739473, 0.13722639368892456, -0.05372268453201935, 0.24313289025798338, -0.13525925039872494, -0.23419269518825978, 0.0028310142294711792, 0.0575683509709794, 0.08960256068749363, 0.13707191210045425, 0.027898161301573157, 0.1081890844741594, -0.26833747166393107, -0.024349477539972603, -0.010455665888991323, -0.23297804575945114], [-0.07133382223171568, 0.18062310544468357, -0.014230270201980111, 0.16260277742410043, 0.10353927748364151, -0.21950955221685509, 0.014587244361065656, 0.033450993031737125, -0.10671346565700164, 0.048573337649209396, -0.033781214345025214, -0.1606652084613673, -0.2757310943277218, -0.1562175919049554, -0.09895256746350417, -0.021940635987076896], [0.006927627095725194, 0.04809291577592514, -0.18886169797365326, -0.01961823675359375, -0.030764232236634277, -0.12166311220049002, -0.03007320926290404, -0.09373478972871008, -0.034797863916539336, -0.05455685804507078, -0.07297568257326724, -0.13809365798165202, -0.046963824358734696, 0.027904058061069898, -0.06596823477973081, 0.027683877743785015], [-0.03558472657997681, -0.010220567264613407, -0.13650578549394962, 0.19135007085427555, -0.13271366505105, -0.117995578747128, -0.08661951758197359, 0.22214667005838531, 0.1500565699587648, -0.1813917463108213, -0.22776752555248767, -0.06216838656665964, -0.002803748527545929, 0.12364430462881797, -0.12017092701401119, 0.013796333513432481], [0.001190414487714642, 0.014439660797247665, -0.017064597381680768, 0.08509199051293323, 0.0632584785797212, 0.05472316078982898, 0.028910489512766178, -0.23946577636937108, 0.04091298914784915, -0.1224594723432169, -0.06284496091670297, -0.01318261825816833, -0.14311446443907574, 0.05647860858625032, -0.07711748056558004, 0.09875947678684778], [-0.04008602505456397, 0.03135180469682715, -0.07781038592415226, 0.048911561304551335, 0.02554258321478782, -0.08805220375798765, -0.08271539770237706, 0.08937702964058404, -0.04734915271203814, -0.07126632167625549, -0.2313441164730005, -0.1516193878258617, -0.03390789238466222, 0.12505837289712382, -0.12619863634813228, -0.01985810239939024], [0.08018969162473938, 0.22676582021913264, 0.04109553978362029, -0.08494484894222655, 0.046909922629973656, 0.11578315096344154, 0.005404703286251614, -0.062162459274076744, 0.008539990657397002, -0.07601713414331203, 0.10970273875271382, -0.21846989325608154, -0.04021903136446316, 0.06703988307976223, 0.0877202207490044, 0.19159985636966234]], "layer0.attn_wo": [[0.06620041413624651, -0.011931634731465737, -0.07223261935794548, 0.058811342070755085, -0.028524592314026254, 0.015042275094062937, -0.10563737481839251, 0.2639101165098822, -0.19673494863276594, -0.11334961124858779, -0.1443152565282822, 0.035793937008089395, 0.09468840666997269, 0.03568847812220663, 0.09312683719253298, -0.07817439193102053], [-0.1287024254381356, -0.07167366237683026, 0.060057419957525775, -0.018379812819202736, -0.05135145834463623, -0.054918370253605076, -0.13683342469630658, 0.06924075882044324, -0.026765613539237187, 0.012672831227732608, -0.07700217872043383, 0.06723307417826298, 0.06665358078153753, 0.07260169208912334, 0.009699021868270848, -0.09052980284101157], [-0.021386400205206744, -0.09235383151973756, 0.08895701373209411, 0.07852997494483814, 0.04761751777636052, 0.05055842020130248, 0.09661664411152363, -0.00397780470866288, -0.11791873426115264, -0.17940576090785446, -0.1335963130152385, -0.031193889157791123, 0.09744224769571891, -0.07819335273200544, 0.026412042909319016, 0.10911605683625099], [0.028019903067732096, 0.017417530078549362, -0.059302858029105184, 0.04393138703077351, 0.006420485238911274, 0.0813329633140058, 0.31566552775232, -0.07245402106692533, -0.09415656907127783, -0.08852227308290361, -0.019757415760728488, -0.05972886505284604, 0.0863513387032572, -0.02409620100299638, -0.022082417469497215, -0.08038987762267263], [-0.15359699995038167, 0.04319358064515405, 0.029385482186542727, -0.23484928949465803, 0.05794767017202169, -0.06651522305888129, 0.058921805711958805, -0.12727599080943117, 0.02998699268257207, 0.17763734247008706, 0.13878253503772464, 0.03924127513699821, 0.11075342432547752, -0.17813256450645165, 0.04674188168365427, 0.04714694890857804], [-0.09734491519378317, -0.22087714968073038, -0.006040504303753183, 0.1588026988260984, 0.04797703367262863, 0.004325194412078043, -0.04594256628876221, 0.14013014890246514, 0.055989285132396094, 0.11559354828005532, -0.030045344851318247, -0.09732502979646936, -0.13115011037764915, -0.08846172041842852, -0.17544220276087177, 0.03534927286939598], [0.08275750499988863, 0.15961169078452012, -0.10216182076812684, -0.10380343638848627, -0.021468546943291474, 0.0032978276946970344, -0.016473562871146954, -0.09345026052829845, 0.07137502796398933, -0.03233477019188208, 0.13404945916809693, 0.1107375329944755, 0.023641711494154297, -0.0030257816168800075, 0.10791038708709459, 0.013027513640099225], [0.013966276541086479, -0.09661183486740806, -0.02276727728385458, -0.05659018563654674, 0.04010422631049633, -0.15194766454707884, -0.1931557027676747, -0.062230335362072633, 0.09272125554894733, -0.013708911398404055, 0.03154645779609183, 0.05159760084238028, -0.027398326015743282, 0.08679900370832877, 0.04605636616480905, 0.25046346782982426], [-0.0660947115215149, -0.2280424034115556, -0.042580301683079816, 0.17095645960188405, -0.006665185973283222, 0.1252226041444101, -0.07667455371124038, 0.051519403415759335, 0.05688605548820848, 0.1800926641900484, 0.04611121782769642, 0.032497449003612046, -0.0719732165622924, 0.11379016634446645, -0.0282135108901784, 0.032326156514949765], [0.0020452445110118356, 0.02901018936139823, -0.03962538597168134, -0.09149865009974285, -0.06717530987815835, -0.011172001010728788, -0.16429138869823856, 0.09451261877498601, -0.11205183309532198, 0.03073891437305472, 0.1103321707534595, 0.039951054280695134, 0.07393409668209257, -0.1807585905098615, 0.022639749790243267, -0.06532031656739268], [-0.016185136788554336, -0.0666842139020967, 0.11068463714986991, -0.19088716018614574, 0.04102660849420199, 0.15046330015004683, -0.11697543593816463, 0.08706087191765666, -0.032420878906839805, 0.2001634843775545, 0.04115038695585332, 0.004994934131766852, 0.0430791002541129, -0.0446850723408181, -0.011263351937122839, -0.043301599091901864], [0.01991270836713517, 0.10275659533879908, 0.10999193803955346, -0.031434861628826076, 0.04638212697903794, -0.16456663617838613, 0.2081446199565721, 0.10146524247068496, -0.07783550879408113, -0.10678014627079094, -0.003790618947582848, -0.032843699648473654, -0.13967665910452007, -0.13128613631333305, -0.11007182584013665, 0.07595920632171005], [0.041507246679051785, 0.10145759272381928, -0.2546849930568564, 0.10113306591596598, -0.02129114753619728, 0.36689403062930886, -0.07910533311476677, -0.11551130958081728, 0.015737940976525824, -0.07510018232560273, -0.05838577493564679, 0.02751870904746776, -0.05852596645091778, 0.037279002610789244, -0.08560863859380852, -0.10472416908726022], [-0.01489952432823123, -0.0800223915559284, 0.015360525365639628, 0.05099017411233005, 0.034297505782824755, -0.08669629827646635, 0.09973138997738147, 0.16877797596457075, 0.024277296485488313, -0.17860627584269204, 0.029268691716240743, -0.05564262163238617, -0.05392349420420219, 0.10038471329204256, -0.0014657671477276645, -0.05768725433898414], [-0.017338249235104464, -0.034878275332138796, -0.0632621637777577, 0.0679867504771786, -0.049555014289344376, 0.27652646932298025, 0.10622088996291928, 0.08519335067181816, -0.16769574377257906, -0.19788373882467122, -0.0037325616850307137, 0.044106265636768754, 0.13136791176430418, -0.09646909232314123, -0.015964934514608356, 0.061649831516364266], [0.2177219458946051, 0.12031873234944271, -0.15564012477610847, 0.05275490191655383, -0.09428805249472619, 0.009862941876992581, -0.16135627979359027, -0.020241490966662754, -0.004261754136212165, 0.15806741352150908, -0.04047224454259803, 0.04007837914087347, -0.028760419565567373, -0.007616357088517218, 0.06420264343256864, -0.04969643065741854]], "layer0.mlp_fc1": [[0.16896542982833732, 0.08607140448033253, -0.21817241217778005, -0.05721310273782705, -0.14483454572363427, 0.09182934379582035, 0.031221788896474565, 0.04430353234564311, 0.04788668403282035, 0.09184946362876024, -0.06495478955977685, -0.22035447946997078, 0.1885117590459626, -0.4950188656851543, 0.07614272949759272, 0.15302154136724302], [0.0024922147213231258, 0.2238810127007713, -0.37804499607784114, 0.39053364198197776, 0.07209863675418285, 0.1813973158870225, -0.07325892606250357, 0.12626861638871806, -0.12814557002576044, -0.009886108429966744, -0.2634831958705517, -0.13963252045856608, 0.019005176759102183, -0.14858427136051428, 0.024059453963649176, 0.07232866194744149], [0.20887346496139808, -0.1851491477987821, -0.178555082234215, 0.012639257385038181, -0.10783939809961776, 0.22172602922348106, -0.3342939101956067, -0.19761376445352338, -0.01947773208233499, 0.22966777537962468, -0.07055138716281324, -0.30550365831334936, -0.2604963248054584, -0.2282683889345646, -0.012915920502798495, 0.062113604533776616], [-0.2661284642668859, 0.36403796212000444, -0.20132428269867964, 0.09065033215676965, 0.23781142245383716, 0.17823368177354432, -0.2047199759372085, 0.11188626996061236, 0.06290922034461317, 0.1377543904188078, -0.46729996054215367, -0.005889005855303502, -0.014739751407954789, 0.10421966458242347, -0.2889604402851327, 0.06328761159068363], [-0.21797877062604504, 0.10196782769268768, -0.03703039922115469, 0.20105161584313871, 0.020602860207494293, 0.23423835907277438, -0.30999051710108794, 0.30991831714748264, -0.035610968260648655, 0.0033185815241039197, -0.03818157542599434, -0.20574791832985562, 0.15949963179934282, -0.37279268000503535, 0.025558492080062774, 0.05980935090155919], [0.12402151760070408, -0.007234863545351446, 0.2257479831111435, 0.32034246019542256, -0.17925564516255796, -0.19364789204157695, -0.26828260672889814, -0.13146270350332387, -0.2226748739444291, 0.24364757681825588, -0.4173628495578116, -0.15456360952070872, -0.14562287116410694, -0.0027515316405286663, -0.07400655654376095, 0.5028120654094507], [0.10339708831821594, 0.033664559029920174, -0.027865166455992157, 0.11640908897708929, -0.003908193622378134, 0.24621163546984193, -0.2004097882397764, 0.15128559283416382, 0.09078889689167015, 0.09588368416175931, 0.03133587583413419, -0.10857962164132971, 0.39796165232390013, -0.3014121504590513, 0.1563030625158434, 0.1425690039263463], [0.10247661977263822, -0.015640011431539542, -0.07938240578136843, 0.22494037763800867, -0.03152752867373864, 0.2688858850729794, -0.24859150175695982, -0.03140539010016338, -0.006563738000612029, 0.1480112631412401, -0.03873907670556191, -0.2700937754890891, 0.05358677449309685, -0.08183195308650397, 0.06038993522524923, -0.09623917889734139], [-0.036298014181829874, 0.09025698071216846, -0.1481018014786124, 0.06625358526991132, -0.11706528901832297, 0.37469220075319876, -0.22629183613634146, -0.2945504633393606, -0.032485688745719284, 0.4318353820032945, -0.03016969784812618, -0.10527890120665719, 0.028680277165602567, -0.1271778376189239, -0.16634086701498108, 0.12974543932488478], [0.17724031618949104, 0.12838040270792297, 0.28855469048829524, 0.06733117095359623, -0.403490932932991, 0.14801137969405273, -0.0670457883354105, 0.07058495418837152, 0.15072938455422405, 0.1423710659104331, 0.03967625593046492, 0.08237013616432867, -0.024945223697144355, -0.10911162346722635, 0.1485372925871855, 0.20853045928963634], [-0.1710384844555784, 0.45425816611245656, -0.003581769095236703, 0.22938881345405895, 0.00822541357956054, -0.08518005286559599, -0.055359200822458404, 0.07692549919379962, 0.130665776858801, 0.11340352878197406, -0.17848411876424358, -0.07332264632600902, 0.0635311712896555, -0.2596788107026418, 0.02764979122347265, 0.16810460329632773], [0.023929173754074176, 0.11930738348019566, -0.10090760620746933, 0.21976819629830577, -0.21027933745231076, -0.1504512823548305, -0.04320428717361504, -0.05875666444434348, 0.06982542112241204, 0.34130841239786397, 0.09024662317299988, -0.3080624070805766, -0.11963370388270887, -0.23177839001276612, -0.029937636010031413, 0.25688090242044165], [0.18589079068229336, 0.23634919629076792, -0.09185407238510145, -0.030910710511171093, 0.004673274674321355, 0.41443442639815514, -0.18614491941232245, -0.34512763682397923, 0.1146507976603904, 0.08258939093785872, 0.04925688840404821, -0.39976946682844894, -0.5257339490700739, -0.06328358461541679, -0.09690749053996763, 0.410275752988206], [0.17872952600071362, 0.23735470982350176, -0.25337338313888563, -0.07725851533872108, -0.14478785361800914, 0.02801076082736044, -0.07985333029837931, 0.11969389895210487, -0.09677416346146427, 0.03269052416582081, -0.1954422591242907, -0.3705412970823059, -0.14089924074102284, -0.2966199847431874, 0.2656964419542574, 0.03313313560557498], [0.05048664537711486, -0.00226007953884663, -0.24968886512072688, -0.05292038465390453, -0.034601500471578416, 0.09475068426632036, -0.2529152248428841, 0.13416992588921176, 0.0584677031485865, 0.46949014991629834, 0.14538606752982183, -0.14619889074611656, -0.16378343207229798, -0.20585665979402396, -0.05668715994460873, -0.04550584773043308], [0.10286136341009057, 0.11024223858940828, -0.10720050783819375, 0.08371176239361607, -0.4619438336893579, 0.05697790484155114, -0.10909464049672424, -0.2033388597706121, -0.15787488441695888, 0.11513517450195529, -0.06088108627409259, 0.06356203229124135, -0.08309210655410043, -0.2600209766657744, 0.2148781723767832, -0.08146578161300258], [0.06064550863869888, 0.2968523161087399, -0.08865343738963753, 0.2112130903540293, -0.1215121425834949, 0.2708681790943119, -0.072522710966162, -0.18204956634925287, 0.1524678102760442, 0.34622989332691034, -0.37302581648147537, -0.25451032264963064, -0.03903392698671173, -0.33424093003319316, 0.02898228941402277, 0.29418569423674], [-0.03639211328522677, 0.08734721193600031, -0.3710367139246197, 0.11708971031970106, -0.47804634457218453, 0.1547887737379612, -0.012218892800235012, 0.11289598797474108, -0.033612452387955606, 0.2789494877117324, 0.03196460677050597, -0.315427692338005, 0.1625907687690582, -0.44794283624362835, -0.06325806410652614, 0.1532091935992354], [0.2603845894699647, -0.2584511246678676, -0.4847980978146714, -0.12829603631538122, 0.0320866718566133, -0.07185114853929052, -0.1266862894184854, 0.22514570147144153, 0.14554265725207685, 0.08051796186416703, -0.34856380386736113, -0.017194437458540227, -0.13764791588897302, -0.130195340915499, -0.09668560703598907, 0.31162674640043964], [0.1464814604157735, -0.11442681893257221, -0.25764148066741355, 0.13863965953344679, -0.00968553233205792, 0.2785917679664188, -0.09491976446455117, -0.083780137858183, 0.04577914619020998, 0.05118768286626542, -0.15798574777483237, -0.012906710208020046, -0.18518751884285875, -0.10957202514696482, -0.04812814483307675, -0.025579236314918263], [0.0911143918326651, 0.15440735455642515, -0.058103646034341136, -0.044421354207533036, -0.23357364520576954, 0.06747309135813218, -0.03261015720168568, -0.12733529120855466, 0.007834640204878486, 0.29887214841585347, -0.05944097683597875, -0.1121983518240486, 0.13288474577487402, -0.18581716941627763, -0.10859011080127276, 0.07365765011567464], [-0.0930315333238428, 0.1545025568378945, -0.016909714962041678, 0.1251878473354601, -0.15794357545122678, 0.134061085959123, -0.10104821787963841, 0.02812319666942921, 0.0009684272853158236, 0.30977292592427497, 0.17283304523470341, -0.2289753913176879, 0.25383771309947417, -0.15021507968339004, -0.1683585898831271, 0.20617714119933883], [-0.06725553525163104, 0.21484827512240032, -0.01188327366421102, 0.1409758282553408, -0.19521089991357776, 0.3414856975169093, -0.21986440909984087, 0.02110499334076775, 0.16319381300438066, 0.2738768229749692, -0.33563791133715387, -0.32445973174434267, -0.040723236496377505, -0.26568430160973194, 0.03896045229065831, 0.007097477878214029], [0.12079582585355297, 0.0020246753306598047, -0.23529418020924847, 0.06700842271285934, -0.05198221604195083, 0.02529870264445532, -0.3202623379834994, -0.18501218877665895, -0.018903274029845034, -0.10096927262209951, -0.11840410312391055, -0.24782912403596338, -0.023161872147598215, -0.289828706873413, -0.06948802418211557, 0.16006146088233714], [0.02851046329369662, -0.07650192401169907, -0.0710723854139736, 0.099922824580198, 0.08457668793722774, 0.10778811014326133, 0.024692306544301584, 0.1908038357020495, 0.12309810752682578, 0.2084224471764629, -0.44021952592809177, -0.1654247164387319, 0.32722972501060865, 0.06989346536519318, 0.017129634520046552, -0.005352602720264372], [-0.10409361634629792, 0.0625298999343774, -0.31121894361175134, -0.04367277940000569, -0.053684892973573324, 0.20678969289932997, -0.1220792077190121, -0.2313866845695709, -0.16505896288941327, 0.5121199744083407, -0.0305699398917978, -0.22950302723380622, 0.017866122646918385, -0.015965259272734435, 0.034780117538966586, 0.1747639611150806], [-0.03373306541785363, -0.12817468533609266, -0.04658437572166863, -0.03693034768652126, -0.0350879722704909, 0.29691565082360605, -0.2740910157459138, 0.24593103925009505, 0.05750126085028097, 0.17121669734270203, 0.26298197180525223, -0.053479884484520186, -0.020267565415367814, -0.2893373287972515, 0.25500803073307465, -0.14835432724903047], [-0.366650865007732, 0.07742083727199858, -0.16123613601763254, 0.0530710485452382, 0.16916624563684626, 0.19170415928652695, -0.14598033385703316, 0.12455737155145655, 0.0032731276543982576, 0.2189769061069272, -0.2689052049628346, 0.10205904313368416, 0.019414302597330534, 0.036605037894151995, -0.3348434622931706, 0.04130469332188832], [0.019655089405520756, 0.23540301373096928, -0.065353943176712, 0.14437245447643415, -0.06646037035332963, 0.1874181568923318, 0.004408451052327897, 0.07012986898724627, 0.07249108920657579, 0.33453180932647136, -0.19482700650164095, -0.3063207051593947, 0.006307033505261627, -0.3819895014325789, 0.008774058098049783, 0.1671592408247952], [0.26000296729487793, 0.3421327502663388, -0.34383334719018904, 0.2148268056878891, -0.01301749791146762, 0.1923358887363696, -0.22063320501801575, -0.1902178758131853, 0.11711865536707401, 0.22134799823397905, -0.04101392363953117, -0.21944068342243436, -0.28225394457991887, -0.22248764538796506, -0.14508386349552915, -0.1436002754158928], [-0.05501004463237621, 0.027163359698841507, -0.053260896964654865, 0.1397035345925498, -0.13709715639639092, 0.2286638881360004, -0.209353254224279, -0.12907848887072906, 0.11474459547214856, 0.22150175508352793, -0.21325391601329338, -0.17970452553039845, 0.008026477167558721, -0.22879781115840975, 0.08772170744947183, 0.1575586427518679], [0.006361685579478843, -0.11530214789742001, -0.23888206892862596, -0.02576332668276915, -0.09865447553955255, -0.08693143262508558, -0.10780751433970191, 0.14674823297081738, 0.04400529425362851, 0.42330422208754337, -0.120748196234697, 0.01293061783276564, -0.004249855947385821, -0.3712984871249117, -0.2686657333988795, 0.18296117754079805], [0.015132203024711306, 0.3726419433630382, -0.3940736792176623, -0.1937882774970314, -0.34961491364035996, 0.006070316237829956, -0.13120504073088657, -0.05658768375208345, -0.029195303983006817, 0.3221252153546081, -0.15976343822296582, 0.1153523792428355, 0.207092647666704, 0.004686706650481941, 0.28011178259084846, -0.06610369379808588], [-0.15564987874657393, 0.38042287068948166, -0.03581971074344246, 0.022124632043870402, -0.10436503134494222, 0.0402186032763346, 0.010606785419462441, -0.18510656573223191, 0.04293470739190764, 0.16972993137085218, -0.15689285433516365, -0.23449609498030327, 0.18473211780353785, -0.4069984240077475, -0.039952217552254976, 0.05491828143434367], [0.06160364647328658, 0.04108548817625373, -0.17439403754065014, 0.03847084998198086, 0.24204033523291668, 0.2695858927059031, -0.113476312172402, -0.2517683182775094, 0.29823021994805554, 0.2616321978561763, -0.2762702424455212, -0.3330037038471738, -0.17862952328883086, 0.17047099315901193, -0.0926860627080492, 0.4677714175965226], [0.11886975159874003, -0.03900672183189475, -0.3809566520288041, 0.03489094438528367, -0.18122453211432488, -0.1119673464167959, -0.40681428657193713, -0.32682255975311947, 0.19478217838717798, 0.2477094553147757, 0.04236972490447362, -0.03365129042956988, 0.035007500199788176, -0.07517782111384787, 0.04263291736714242, -0.07751435062104546], [0.4038732230693265, -0.06087366272553976, 0.226246538353049, 0.20779439093404412, -0.20400768670095126, 0.2045547280204615, -0.1177790286834782, -0.166722726389232, -0.021061940019163877, -0.09272592590699448, -0.07011806306090193, 0.3089348166169804, 0.141604849799999, 0.11642745877829554, 0.3495113710657693, -0.12844921576474913], [0.08000032378279215, 0.19948418019829295, -0.28191698902737183, 0.051451300119669904, -0.16242450796569183, -0.04296179070903155, -0.32108116568036493, -0.08608558789385266, 0.006363475702646341, 0.26985387791031284, -0.13351945313916241, 0.01877123235274344, -0.20301251853881802, -0.22606263376352476, 0.14157214737373436, 0.09181150746714632], [0.09374027778145166, 0.06316311141912294, -0.27486809511945404, 0.1153291416116145, 0.028388128514844558, 0.11144412835441515, -0.1282861226900008, -0.03619725406572914, 0.12867811587508454, 0.16819387006165987, -0.12021924067065394, -0.11547031597239865, 0.23163716908029802, 0.07475773276999499, 0.002327471162885565, 0.13074537753546714], [0.17292517255176298, -0.04224757234782155, -0.03596812300197728, 0.1297571694784256, -0.1890008592240248, 0.35233261714031816, -0.2925611631345558, 0.007672636712390791, 0.03152374225612441, 0.06613494087980532, -0.002918933201025015, -0.2528291596167986, -0.1271668092067967, -0.26199739877092, 0.017662129510156086, -0.32969075951954546], [0.1401908677593422, 0.18937823102004558, -0.05328668286368459, -0.012293148660265988, 0.09082567221763357, 0.02026433766704389, -0.3419611948459969, 0.04861711396377214, -0.07143912524337968, 0.027304713170033856, -0.24298730768980065, 0.013519247299690073, -0.24136710324122054, -0.012760680146472294, -0.019030027064179923, 0.10142387580987816], [0.14170041087099453, 0.10484358188686246, -0.020397502498469382, 0.1564485509042241, -0.1345865646126297, -0.12611455316732448, -0.24855960863193105, -0.09032341662929884, 0.17391328070060139, 0.3297171555996176, -0.3432199749421952, -0.09881018481153804, 0.07926257738073933, 0.03290255112869657, 0.0763567105892597, 0.25568192645320387], [0.21436084465856914, 0.08305860177998103, -0.2058414534301366, 0.151246334997512, -0.016988214441287872, 0.14396234125638807, -0.1728812921997426, -0.03067113543038878, 0.2180537709675383, 0.17068765995971086, -0.2620989777777719, -0.11302266643552132, -0.19495901977557453, -0.3093391491580863, -0.146379586705398, 0.15258717476649886], [0.24633856789107958, -0.013596171823430762, -0.033766229244716194, 0.16445582952888838, -0.02433929743938657, 0.11719830919520542, -0.22360395806457947, 0.07795545604688865, 0.11062678000603822, 0.6178761286149014, -0.18861406955251062, -0.08906717320588299, 0.39478861198444365, -0.15108278875913367, -0.14156020380422957, 0.10507468559704325], [0.33065143605445496, -0.21165143595391858, -0.08797042103138801, -0.08038680638518433, 0.1934792214947113, 0.2733282974745507, -0.3577085986395295, -0.29773631406255413, -0.13682937249862073, 0.06136415881963338, -0.067521245217692, -0.41621037204320405, 0.10958477596916218, -0.054107654159831264, -0.005270306320085682, -0.008865115439881438], [-0.16035915977641313, 0.22133592874905603, -0.02677250171313245, 0.4496356740845098, -0.13590853934666464, -0.06247331674765805, 0.004862402980999396, 0.1421296151482992, 0.3197988859575498, 0.31714656602560115, -0.2617414426800911, -0.07970461582757776, 0.008408542456079002, -0.2902098137967972, 0.15276289986382588, 0.22854122645311545], [-0.14578349122732523, 0.16310051744374662, -0.15632593966069322, 0.05678150804023393, 0.07200985729301317, 0.21491658232328867, -0.22313030120644028, -0.0074566569287699185, 0.052065769829606756, 0.1406983163919683, -0.09731825432096404, -0.02054034835995434, -0.06124416473511665, -0.13781942743411257, 0.0973218826976783, 0.10099143163264555], [-0.03076506357850241, -0.15649785122462362, -0.2760841283579887, 0.15437551813396955, 0.056144086674489814, 0.11555710792451859, -0.12304801514268583, -0.12531484600268486, 0.02150361744719098, 0.0461215380922406, 0.057938488882430215, 0.07529955204241316, 0.28256942394629025, -0.4299712283771621, 0.1349892529276558, 0.40969267551906396], [-0.12403650803532515, -0.059591256448366894, -0.3981694999098934, 0.02309226667975284, -0.2374293635277775, 0.16919925575042583, -0.16118728476297983, 0.19049124097323747, -0.2633563520729593, 0.08596490400491091, 0.2941351759267945, -0.11285696598875125, 0.23958493116415802, -0.2657229560739185, 0.17350773579986448, 0.13149483252606822], [0.16270322653880395, 0.2535146770273489, -0.32084767395279573, -0.06734504705964801, -0.16433142672655776, -0.03917132975465142, -0.005207706541716521, -0.005782761824789925, 0.048021725680002014, 0.5191010758111626, 0.2457816441661567, -0.2740971896535678, 0.024506376946064192, -0.16155908716825104, 0.00788172798884783, 0.18416861103985013], [-0.0012171699834907642, 0.2280862399400286, 0.05779955678277258, 0.17946550840261086, -0.12038431096424757, 0.1250415426305221, -0.0407859176635792, -0.0388568781829459, -0.22727669259357458, 0.2717253596880481, -0.06146422475959583, -0.3641824528651094, 0.020632663300272993, -0.4245904403260866, 0.1864271168530236, 0.3214515855733809], [0.08578809325261753, 0.06474564046779681, -0.14648681070666733, 0.22428144682681744, -0.13744377287063497, 0.09204926759460588, -0.18624227644682298, -0.16467213927660102, 0.11229239951526034, 0.2488017413303775, -0.1193883046298521, -0.108501743331608, 0.06827480256029168, -0.3253049957928106, 0.03795413206217068, 0.16381965592263273], [0.020653121634982022, -0.03923246581003511, 0.01369998026048269, -0.019250937185256424, -0.2597611162172685, 0.18369809711223828, -0.14154582722979892, -0.07469829314274994, 0.09977771361650173, 0.2970685068817578, 0.2145446706319204, -0.019468966068790117, -0.05212180653402552, -0.4514847651191089, 0.157661086551379, -0.001234786537202704], [0.31627594471462256, 0.07455953331600622, -0.20687107971675503, -0.23932293548504882, 0.13836936977843922, 0.021046591434099902, -0.2231673582109404, -0.025481520086890093, 0.058555398533029025, 0.1544983629987371, 0.12644486835314342, -0.554675266991386, 0.13105327103506653, -0.28311944490387486, 0.11733564978403128, 0.10041463129090707], [0.15701318549282725, -0.06253705901754321, -0.1036192537647767, 0.027737068693483448, -0.07028620994529323, 0.1012678129194938, -0.27029927625285205, -0.11444042689186676, 0.15542976295285849, 0.08310987918114073, 0.19269134902377724, 6.28020394194815e-05, 0.04583113546655615, -0.3064436946305187, -0.11026321717346603, 0.006210196605755853], [0.11009466710466091, 0.42285492687863196, -0.02571691416677797, 0.3405316179294459, 0.042658957150942624, 0.1662636182943404, -0.1705590483285588, -0.06719247753457927, -0.07078220838970073, 0.5961001579055988, -0.1614245591156479, -0.22983489127756965, 0.07280599503378213, -0.547795538535083, -0.13548558825996368, 0.07998726005123452], [0.13154332077979614, -0.06350191821258555, -0.27301578551376626, -0.06914778918441301, -0.19273132349440356, 0.06265498737166414, -0.20815470687154766, -0.25481086877353604, 0.19310490750197562, 0.26572541784050885, 0.02734973365410019, -0.13225004812822824, -0.11632989636498617, -0.2847438121617753, -0.10481793282297804, -0.09729942232140451], [0.06423400820967406, -0.1849533348534876, -0.27348267538041837, 0.2997521486898092, -0.20380459379342966, 0.02236564462910542, -0.001719912519951523, 0.0775146538351429, -0.08980385105022083, 0.21900449716379206, -0.16758734498597902, -0.059413211445543734, 0.1289162802581434, -0.172219682077688, -0.12339869548332716, 0.06089981495117832], [0.007871828135304864, 0.025145094810078313, -0.1007217769620051, -0.021949892248353087, 0.08299317569210703, 0.0962545119250758, -0.12367709180232048, 0.04542012486561871, 0.45619126149861294, 0.27440290725513944, -0.08146217177591039, -0.2840339405110631, -0.01903739624626216, 0.021620810105299877, -0.0952514421442384, 0.02608865002829166], [-0.31547128694229815, 0.024881151786834938, -0.3372622772901624, -0.14756163001390205, 0.01299983435484373, 0.1911801809614501, -0.06786846668135947, -0.04879546971545288, 0.05802563996331754, 0.3480849137698708, -0.13304334724726077, 0.006310283856158232, -0.0655520305040255, 0.05272132901572788, -0.21931022958648252, 0.18049959100515203], [-0.023354294037994407, 0.44920455520768526, 0.01650477304244413, -0.011507222581098512, 0.06332828171167953, 0.08490136489230941, -0.016104735608995818, 0.19246160641263738, -0.09735772580871854, 0.14457420796751597, -0.5665542194810597, 0.11288872037427604, -0.0873670194858323, 0.12732288939088837, 0.06639810157254454, 0.5287388898663362], [0.2811541283636914, -0.2574647865778565, -0.20766465208406532, 0.006946332071373339, 0.1141304652742995, -0.11317455239797083, -0.4431416309423313, 0.07535712092773128, 0.1314977962811649, 0.2081593097043831, -0.3326434887435955, 0.05213987054846002, -0.3052734324665207, 0.027647795034857186, -0.2112592070042329, 0.0436351792041464], [0.1555097742900453, 0.11220209433745171, -0.2584840162560273, 0.1411666519601382, -0.13458383031322455, 0.1416013522087953, -0.11451377378933336, -0.06534839054193782, 0.0314434859818277, 0.17211601040362845, -0.03429102288295711, -0.13544028894298407, -0.014063855819778448, -0.042089167175789186, -0.1361975771312709, 0.05366174485902007], [0.06654834133323533, -0.07175980295677925, -0.11712694337273616, 0.03987479716503389, -0.18966126225752394, 0.22306562991241238, -0.14887141720761435, 0.038341917796959925, -0.08001513134640492, 0.08777625681419354, -0.10179528002485853, -0.09114416019970496, 0.041014975193680504, -0.1109113949518983, 0.054370277613716926, -0.1873953440581312]], "layer0.mlp_fc2": [[-0.005953303943375781, 0.23702415843443725, -0.16482466144305258, 0.04396965900726314, 0.11342615064147198, 0.07008863845322358, 0.1499835591232494, 0.15816267219640745, -0.27659919321596266, 0.2686820073642991, 0.10689188750480924, -0.22675917495132636, -0.07746628755945253, -0.11990234286072524, -0.051756824962580696, 0.27703252958718977, 0.15767735103691857, -0.014699798616592508, 0.20865427491600402, 0.039964506427462194, -0.06541712087127885, -0.27333858938187927, 0.09078031531683678, 0.043243111217857934, 0.01082270617765774, -0.22448855326463904, -0.3484310612833184, -0.08375639804798929, 0.05668147945369966, 0.06679217547528345, 0.1236311382923643, 0.04672609014267581, 0.1937157922138584, 0.23656321168118927, -0.019640172193982616, 0.18343532892975137, 0.47264060283792825, -0.04396083058578617, 0.07065941124528206, 0.29747044935848554, -0.0021878700711884516, 0.15412021061259273, 0.04777158306028013, -0.008752769802452222, -0.09292565652453559, 0.18041318261417452, 0.05466131268972423, 0.13298647003469433, -0.29494577141491635, -0.2705123466428413, 0.21922187008200789, 0.05476418975589049, -0.004223983722895912, -0.2722501900169539, -0.045200691550557996, 0.10739774451222997, -0.1453912290906319, -0.027035560965986808, 0.11626728935681553, -0.08289252281439673, 0.23377910071803643, 0.07109682825420471, 0.08405258837419739, 0.2082566191081993], [0.08125053130637279, -0.021628934406650768, 0.08972084521147998, -0.05665357862362354, 0.06405220526894154, 0.1421626596584727, 0.08091097834207375, 0.11815034153923287, 0.16629954020660112, 0.16086524398556612, -0.008970694826740304, 0.070728045704753, -0.1974955863584988, 0.04702105546553007, -0.020840870231735982, 0.030774133255483258, 0.03841787574120303, 0.1437935278798834, -0.3166672635937433, 0.09491027947849234, 0.05546549341840078, -0.09631224663557471, -0.11244093906791593, 0.11484624770365305, -0.29122877065159236, -0.05343807520520495, 0.009104727447777435, 0.12566685028216298, 0.32978627477490285, -0.16071090107419297, 0.01665540948939097, -0.04076798003099001, -0.13699239740675012, 0.13162747875211736, -0.4183971399257376, 0.016173684232645112, 0.020961640876649774, -0.06825240499868537, -0.06772251316063395, -0.05645937792364819, -0.19348697506243343, 0.021965936593355793, -0.14953197950263034, 0.00031945272158832654, -0.0556356053664376, -0.0352025113287694, -0.0231552304805142, 0.16651204857299273, -0.3716497146818481, 0.08030182588524308, 0.15229961559959979, 0.14364479851676035, 0.11120862995502288, -0.26168489589478533, 0.1025373289519435, 0.3220391393247051, 0.08930793453058591, 0.15181835879969163, -0.2644411113336854, 0.18021458461368067, -0.27785893956224755, -0.43188583168777833, -0.14356515437136302, -0.09575994602613408], [-0.034148009711689284, 0.11935853126024841, -0.12802241147992555, -0.03975716569614791, 0.08720515236249399, 0.22930762948624578, 0.02420286200841494, -0.11127390632514789, -0.23293163033454475, 0.08404316905927423, 0.1328098797551741, -0.00035698676795340405, 0.25757786801947147, 0.09596068715989442, 0.1198183205244433, 0.13651076315001584, 0.04157835579703647, 0.194635817252327, 0.11518874088109222, -0.23982091190279792, 0.008527522581936892, 0.06514946857986541, -0.0877543786926398, 0.030351291465329097, -0.25425766889166795, 0.052728113743853715, -0.16800265052537036, 0.003629144568640792, 0.07443059483636462, 0.020567302593371615, -0.192782496791868, 0.03588566560538041, 0.18319768372423723, -0.015643685729040284, 0.12633425329086617, 0.1143443988824285, 0.040080896913833465, 0.3001663347362784, -0.005044974065415524, -0.2826159977980931, -0.0853973433996868, 0.1732682777630187, 0.15843456267566222, -0.04462882527609275, -0.019050734822264808, 0.15217339192035656, 0.006784490084436881, 0.01669118924098108, -0.030769437766004333, -0.13915032819463694, 0.1260525382146892, 0.02512840716043456, -0.06427075865864816, 0.13291935794129142, -0.1022701736265107, 0.2573406338054562, -0.006396064202499446, -0.14464989249846003, -0.08234001700478644, -0.0022748085960768833, -0.05936821602030251, 0.04602969525885763, -0.008379557602449676, -0.34453516085374297], [0.05835008824177545, -0.045722272973906214, -0.18057797520397054, 0.15875137666036424, 0.08275576926974904, -0.09863286916737307, 0.12880908304190236, -0.17011608648797844, 0.08610884217116548, 0.040272229235856376, 0.06608199529301932, -0.059478381715184395, -0.29738998244763437, 0.10163822882630011, -0.1780494520835289, -0.009375049687674537, 0.09172202873516896, 0.04807176471500343, -0.20420417732614157, 0.1078730407753098, -0.15471769762060023, 0.033463245396164784, 0.055193627656236414, -0.1540603111397035, -0.11806709654955205, -0.08326728140058386, 0.10448291481910925, 0.10609756679339702, 0.1970338876684103, -0.025244134164810916, -0.023176406930200972, -0.10966877694679289, -0.16665564241661668, 0.09092281283702974, -0.13346353326840002, -0.07366568483384316, 0.09021890595033488, 0.0788745635185648, -0.019800076213726526, 0.02939212882224155, 0.02093399551551725, -0.070797566682555, 0.05068048247495401, -0.24681041840810525, -0.36565491029890357, -0.09708880380702936, 0.14609095865602922, -0.23655460130912148, -0.04588208626802114, -0.1531219359574162, 0.15630746110072533, 0.10233929211948294, 0.0692228164977633, -0.05151207880136516, -0.12010712040936222, 0.01932019157350965, -0.04881197986689382, -0.16020050668931113, 0.1535780436087952, 0.1710878373977468, 0.10223068267322662, -0.2671198295068751, -0.06189776340572476, -0.07483425149435197], [0.24843992155649633, -0.036169353010985936, 0.24016632147520164, 0.32994437205081245, 0.15166935404366502, 0.1628511617718629, 0.16431643699528553, 0.02020726207755763, 0.18233704761433991, 0.34112825796222096, 0.11648342467699836, 0.054395038798648855, 0.10189158947396575, 0.025710544838693745, -0.2085717609636009, 0.07868512470938675, -0.20078859367140095, -0.0027252727680145347, 0.2718750828096879, 0.016141178199901244, 0.11336450601443702, 0.058329264886416925, 0.17365937459168332, 0.12823638349743904, 0.0683790547348025, 0.05131224158834452, -0.1613052989208148, 0.18226385275348006, 0.09610227839009915, 0.26283678337652894, -0.03601835554116467, 0.10162244348731464, -0.071133918499611, 0.07516450352014035, 0.14596110189248182, 0.0908151878520491, -0.23394499736061883, 0.06402755288018099, -0.11964301010316553, -0.06976221425946283, 0.2788587178733832, 0.07201709326948078, 0.1859525153039564, 0.04444698738478646, 0.24344852085216662, 0.16510550472065863, 0.17405342475060995, 0.18997574457333635, -0.09774226230419518, -0.16573840009775392, 0.20413886965375297, -0.18612026017689348, 0.09547205671804833, 0.3325223049019171, 0.058416691625227384, 0.32140144127709247, 0.0430879995275201, 0.1293218259546156, 0.011359416756188769, 0.12131930229857135, 0.12369221971018254, 0.25581544025330866, 0.037380568599364235, -0.023384260043782464], [0.04113814997483066, 0.07515159125708597, 0.18411912307956135, -0.08211357325668453, 0.1345779097029162, 0.07121983656014495, 0.30364476674993685, 0.08908374260399882, 0.006428305559539568, 0.033098222539496694, 0.07257377976168046, -0.07295494826151672, 0.03300527319065264, -0.14397909188992328, -0.0915619280600432, 0.09056408679996242, 0.01897160883826145, -0.11465624366344228, -0.06643869226952123, -0.17847268215377346, -0.05038423750343463, 0.053310292522594914, 0.12527212054497272, -0.10438884429089161, 0.10001648473127503, -0.009901845464065872, 0.0018375538065677896, -0.10705785773965074, 0.1069963692454706, -0.1916656290776639, 0.016019198328957783, -0.11043103308614617, -0.14408747622530949, -0.1349890727151567, 0.05697478920182271, 0.088761350233381, 0.34938754280846657, -0.15922752712230728, 0.04455374901246466, -0.03455626739407696, -0.13244728621473065, -0.14033163343109123, 0.10423036661584663, 0.14200273401093158, 0.2455252532367349, 0.05243029784745551, 0.007489103537455403, 0.1238703307231835, -0.12236922631052168, -0.12452855433897637, 0.038963313353290584, -0.1262430431362087, -0.0447695611560368, 0.1488271916270699, 0.03398055682221464, -0.009850303749485471, 0.05179900677963573, 0.02059042826610585, 0.13554803272418448, -0.04728599753515035, -0.3053168350794794, 0.012492677460543205, 0.08615119928211788, -0.05716220619104904], [-0.012891609927855959, -0.1448334172404239, 0.15785193630107253, -0.02455476465484271, -0.09002105758124801, -0.08622138821683463, -0.21996556003556977, 0.05200002179699692, 0.1276473471587435, -0.17715762066990326, -0.1592126046756197, 0.23384711408028044, 0.4123825739322541, -0.013737042845590375, -0.05660864782651121, -0.08388823774968786, -0.27770610744334345, 0.04820149105098424, 0.010695918417672142, 0.065248279204178, -0.12967207918343263, 0.11365372003635323, -0.15425299044737933, 0.1544450832923424, -0.1282742584285832, 0.13462480003565508, -0.13435242281151413, 0.03147953268347744, -0.25176502858718725, 0.10402141525858023, -0.2406292920466632, -0.036858640565157426, -0.033360449670775894, -0.08862848716192864, 0.043402252714925205, -0.07242604871505641, -0.2794848450139584, 0.05354546532595628, -0.025131074388510876, -0.21698082824509268, -0.03534164689179704, 0.04563045489932969, -0.03489178486874195, -0.2523704666498484, -0.05467452150235383, 0.12851766634727574, -0.07960075331049776, 0.14571934362484804, 0.1825243557211901, 0.011217055464629422, 0.15707655439296167, 0.03265493785006187, 0.07555676237864561, -0.01960217944132852, 0.1240273120677829, -0.018531012757995725, 0.09829827460444783, -0.1106160700644176, -0.10738111449198559, 0.09866199526292925, 0.08743212062977496, -0.03706398704438251, -0.0033693690658749636, -0.1429290241474544], [-0.1658913558265225, -0.03956293845228131, 0.050867934374443834, -0.0031038544816080443, -0.15149528080579647, 0.049174503306495476, -0.15980793941698485, -0.02559154439897504, -0.3267415255071878, -0.061547701402296685, 0.027933747551074164, 0.031192283294524895, -0.22737372361508976, -0.2633495358341607, 0.15915904224353025, 0.15766802682490325, -0.40208164207135255, -0.07470163816815982, 0.13307261239774215, 0.04718646969662168, 0.14515815267390542, 0.019391518286238665, -0.1290205602910842, 0.04645583203126512, 0.1640420481017517, -0.09254959393272846, 0.07930268273044676, -0.20916719404831952, -0.24507023131181738, 0.00824663567355417, 0.24454302968412361, 0.24516239007479745, -0.07871340605702593, -0.004235159669505821, 0.09873092360300541, -0.2318113764331532, 0.094212731862902, 0.06950962792164873, 0.01894740066446286, -0.013088376389541306, -0.17728093977042886, -0.28440738926936554, -0.024969293116425022, 0.07728454306074989, -0.10492126885196977, -0.29521906626147115, -0.01578677588704184, 0.06306476957692767, 0.004271322630747432, -0.11629582517584099, -0.0011626184518647236, -0.0792358573622338, 0.3447479902289789, -0.2027128364236278, 0.10189343961951863, -0.20889721904047145, 0.05641596515098765, -0.00031267197754530386, 0.1772976166170233, 0.020810632805284057, -0.07286903373980728, 0.04001205553919226, 0.08244440273500685, 0.0357793128788734], [0.10585808595946503, 0.002693308911589135, 0.20518917298795328, -0.022048194041994918, -0.040222515310456855, -0.02783368821387564, 0.10651604297829864, 0.1969749403145811, 0.2907475371725996, 0.07920393606325424, -0.14188960993733962, 0.22507162872055417, 0.010676415241663921, 0.19280327098416236, -0.33745027253140925, 0.4054984030425947, -0.3559003583185756, 0.09624281597030306, -0.16163409317040425, 0.15296062024071166, 0.011791069237689921, -0.1049157526853713, -0.2602609727357057, -0.0776367709932724, -0.04758906298346875, 0.10340480003769444, 0.25040869109293773, 0.14828668926863683, -0.28878616649154004, -0.05673953146882391, -0.07025213351245756, 0.08857963641510551, 0.09705819881526001, -0.07498451473595642, 0.2892318330245906, -0.16637542756954155, 0.06062043566297792, -0.031158490618257387, -0.17363643911488622, 0.14934379568240433, -0.003952966063188014, -0.20241858142232522, 0.025705843816098643, -0.012920393883193305, -0.09709145777320591, -0.12566901094990207, -0.01622398521719351, -0.25716330926571807, 0.06472699806411826, -0.11784033467788335, -0.15685273374674294, -0.16426815262556735, -0.08568201477855698, -0.04740089312790273, -0.14342221148658565, -0.3727365868597161, 0.244618285724652, 0.010017847282912407, 0.07777397037548499, 0.0659760752530421, -0.05516810181532601, -0.049943434640018394, 0.001595082193839304, 0.0805614605617558], [-0.06619696721493241, 0.08157720714872184, -0.1502418006089214, -0.04343966150591288, -0.10418602759971865, 0.0378142554437298, -0.00882793622399641, -0.12194287113429295, -0.18413266370107934, -0.13397234479819353, 0.21874831118399712, -0.013582536013424195, -0.3555429722160243, 0.09845738224776344, -0.006454769824564628, -0.12793024653507715, 0.04861279505512907, -0.22931019258675833, -0.0362378374299255, -0.05726345047802147, 0.11574749081018958, -0.08527564841604537, 0.12107176800734193, -0.14888861624346295, 0.22849554558932098, -0.06749930908902727, -0.2059782139084703, -0.08495591794954642, 0.03327407109166468, -0.2293443306950952, -0.07464861830030323, 0.007025833795555514, 0.004003730716029636, 0.02981527877582626, -0.3403649574361574, -0.11640856979505755, 0.010889561894060585, 0.13766400731602707, 0.01536514440884188, -0.15553370752694426, -0.19223821242984573, -0.2163521968360752, -0.09602102998342364, 0.031825220017218506, -0.21476346177992203, 0.058960594244913636, -0.1220210472744511, -0.21439109303306647, -0.2020297819125182, -0.023952146967303484, -0.13631630977292283, 0.07059097417138181, -0.1482811216722596, 0.24391257868067798, -0.23473567176341392, 0.14914040128081363, -0.15253154525380963, 0.04731151122760829, -0.059644698209224696, 0.04705605694952714, 0.0957796512136887, -0.1926170902869147, -0.04290565457822893, 0.011701235947078078], [-0.014408248389499471, -0.25394072213302565, -0.1741511330735265, 0.3806043948255737, -0.2170139694373367, 0.1775725026770945, -0.10734879825834602, -0.2721059618486145, 0.05568429748703905, 0.144278336222158, -0.10560055770243869, 0.06714896915400756, -0.01771404263105477, -0.07916112647611856, 0.2096081658091604, -0.1770151578380222, -0.3333769376291723, -0.07940597977421776, -0.2303204874817887, -0.1383658042097952, -0.07433760080107774, -0.0011815278414283713, -0.30683790348449536, -0.1936576071548442, 0.0010197115074870654, 0.20962188536982082, -0.05413142386516528, 0.2700170620770581, -0.08130725356896128, -0.03756809857169909, -0.29704679150127217, -0.17311943197414983, -0.012736152711024898, 0.16537545579209598, 0.05401456285311776, -0.15703646479261144, -0.1171167430190897, -0.40737767648392403, -0.05814744768576611, -0.32840934302372415, -0.05141817947340137, 0.045888689737313915, -0.1582505338688532, -0.22453961366248124, -0.22887329363024536, 0.05515813387979456, -0.10399023145467848, -0.10684992093451016, 0.1092441524109606, -0.0011750150132499412, -0.32755488944323646, -0.24626379859668193, -0.2236567483081465, -0.23707584531193093, -0.20226488083961033, -0.35486362901533913, 0.0007676902175214752, -0.19691078608720322, 0.07986282566845147, 0.12848395464764753, 0.32388901935491515, -0.1522965553624266, -0.10159689622720114, -0.1338466202211047], [-0.06598813754239607, 0.06894626866118264, -0.2531936594645707, 0.05154513326730433, -0.021667599207140106, 0.29168853086535046, 0.1004681409240843, -0.24535892994943134, -0.090674472537827, -0.06565856831309398, -0.03912835412329465, -0.10087250931623243, -0.07348463107452968, 0.16047984042234748, 0.38166649455192564, -0.027148228474269467, 0.0768119788588661, 0.0683878354014726, 0.0032162552747848484, -0.10511043674989405, 0.038400770719697774, 0.13964363503142666, -0.11005309284112988, -0.1645707155028277, 0.014477448417584082, -0.07917101098788676, -0.16107586611122965, 0.06477496254706795, -0.017664053001821976, 0.02090475661358013, 0.0875571688993369, 0.028934216108373087, -0.09672755877629954, 0.19355007517747788, -0.08831059028707486, 0.16566728276408402, 0.08747231811444785, -0.09561031087726773, 0.19120212537786288, -0.05446754709047792, -0.004062071201316209, 0.12033695082613508, 0.04644063212426102, -0.04743287056172226, -0.13912653786701412, -0.1577059105435078, -0.016373241039833085, -0.07334001048351604, -0.11846972476326628, 0.06073580455367187, 0.1893299172985268, -0.09261319699896307, 0.033739576799104685, 0.05994700193454831, -0.14288698317917753, 0.15390598662161645, -0.010875861495290372, 0.1136303911574446, -0.15501920844455222, 0.13019051322529415, -0.05454944166261926, -0.0507248475704784, -0.16009763950092065, -0.1045451256367548], [-0.23846470865064057, -0.03859871047146804, 0.13435038568516108, -0.4111179531624001, -0.3157607866110639, -0.043342548064078314, -0.21718698675066175, 0.007630396108380697, 0.10372943943114657, -0.07655269648887694, 0.08381137738221621, 0.05345266511915699, 0.4089037445998051, -0.29881742594841754, 0.0358391104399561, -0.2929319294154153, 0.026220249343600045, -0.24412241608674484, 0.03130931477050295, -0.04887774701440424, -0.10045199607288427, -0.1016843929647945, 0.09490826713767961, -0.048439303596497126, 0.03682260694466277, 0.10155868288559998, -0.14169498348171286, -0.40851317088971145, -0.03584145244337052, -0.15397454296544327, -0.2258160844659481, 0.10914722803909063, 0.0251047293846896, 0.09799051459194799, 0.1684319271782002, 0.05432926551247597, -0.10539722139436414, 0.014392044764611055, -0.06694051576085587, 0.0238010310565445, -0.06373579998901824, 0.09324113265589183, -0.31891805413120694, -0.2760155051953439, 0.08935952943725219, 0.4597184401815725, -0.08003784011181338, -0.22096792392057665, -0.09359936026732606, 0.18481293390680203, -0.28544086173776695, -0.09397491510919202, -0.01735975129096969, -0.03981202229848368, -0.023680067464506693, -0.16045961843249987, 0.1514688321050441, 0.02209074503017884, -0.03568715244237865, -0.1715854076817315, -0.09110758888065996, -0.20140289453640056, -0.19217968207877334, -0.008644869359685736], [0.05287863011808574, 0.04659884652723645, 0.11572949150294204, -0.0802999165724526, 0.2211178129839269, 0.2947219003966762, 0.20821231251159478, 0.12869076815103886, -0.0072995900026000815, 0.32735800081278965, -0.20764673236749373, -0.17594831987658147, 0.0493697771806709, 0.04040344106448463, 0.04074581866470239, 0.2558022943935608, -0.17320548154353735, 0.08765260006348742, -0.006806003839551034, 0.03170433268498192, 0.10804118166675286, 0.06988452526202851, -0.12506156472413865, 0.01529770635633238, 0.13408896374121393, -0.28846419616188, 0.22687517051339542, 0.03325219479835301, -0.06192455192183685, 0.2318216352072322, 0.10966697222550464, 0.16858404586580095, 0.11888333577081917, 0.01972569155900134, 0.14062141973504427, 0.08130687316577724, 0.37157800577901395, 0.03078429062325772, -0.06397783426529845, 0.4413231065388841, -0.16291090691483265, -0.1864455275668716, 0.10952146472458671, 0.24001281026564264, 0.32810893984151535, -0.10494560683922388, -0.24849352899539323, 0.12931373303272167, 0.021147617489230684, -0.02161502849409141, 0.20104834696078333, -0.0450926197904794, 0.20606963631997569, 0.2395811289740952, 0.09769665587802764, -0.0700192587084566, 0.13397875218625618, 0.15220393709329735, 0.19725474635115456, -0.015004355525578413, 0.12448813709959328, 0.15577984007924417, -0.130831649342091, 0.23834081343098695], [-0.024245263284079024, 0.0825683305453539, 0.03479140299312759, 0.02442646560014232, 0.16086078227576056, 0.14355881872836582, -0.048674574749887935, 0.011147743656561425, -0.04840618549793573, -0.023683825478377926, 0.016215029856604616, 0.02152946676819675, 0.04899079231531526, -0.2858067590336166, -0.0116244901738853, -0.30014764335724065, 0.20439237502922947, 0.18843271369360373, -0.2600397648021014, -0.1401790148494605, 0.04700695470961795, 0.11103183829542446, 0.381163434762129, -0.0897083619257317, 0.12208933674088975, -0.1861363824997486, -0.14610604980794822, -0.08400358782275218, 0.12259436071629456, -0.05488812992653612, 0.006176087985712848, -0.05463716004416823, 0.022865495105598484, 0.21603359047841275, -0.1373312389166278, 0.08376454414789603, -0.21965640911147347, -0.07825177414842335, -0.09010372706352422, 0.03746405014199136, 0.09776599955716642, -0.051275141635532054, -0.02630606355419101, -0.021317307798214984, -0.19759675430886495, -0.08838372417961224, -0.08793984511453803, 0.18232188509531752, 0.14221650473444797, 0.24128293930307293, 0.14122490488900005, 0.1436080267840546, 0.017822476104893528, -0.1694229012113748, -0.10041564898702073, 0.44426759000933996, -0.13674596592893487, 0.12535627899152668, -0.17022881776382412, -0.18181064930497004, 0.07614930802489348, 0.017364885594877, 0.13586351070161098, -0.08634950809987772], [-0.2018237774433497, -0.0676228933611567, 0.165290449406932, -0.4181460502343028, -0.34008803696622897, 0.13448725983283977, -0.16296196793664508, -0.1637426035124885, -0.295340911947858, -0.1865267311050649, -0.26128938219818165, -0.09879901968558275, -0.048753563585286284, 0.06066340691413233, 0.04630982420286269, 0.03245070289096406, 0.19517802240249688, -0.184929920309878, -0.10330651286361144, 0.132297444353194, -0.03027094343284705, -0.24959726670345445, -0.11519099838081795, -0.019101632330331037, -0.09533537197555157, -0.04649287821145003, -0.1882788839548415, -0.28192996994322694, 0.11419578668446949, 0.11139167281784211, 0.10271721008712639, 0.1749528759757532, -0.1076068791151816, -0.23412898709842253, -0.24707396128903492, 0.17447056510526548, 0.2093083022234911, 0.04004793117251329, 0.03169961194669157, -0.04996456699457923, 0.0384470119045426, -0.016390471770599015, -0.007911037651930854, -0.07133188212560544, 0.0932063899580471, -0.2959463257620409, -0.10191878872138843, 0.032114488575549015, 0.10823958996165697, -0.22335986066484168, -0.005483875833073585, 0.08194879884784585, 0.04584890619468377, 0.18587483420270198, 0.14304867426874507, 0.183729490764711, 0.21477828650782285, 0.04113877645056046, 0.22030857337775916, -0.3223907248309269, -0.24316676195692657, 0.2689975955949357, -0.07831589427211483, -0.11055849551314882]]}}